UNK -0.0026533876 0.154179 -0.094693825 -0.024875402 0.03696889 0.086342394 0.0751731 0.057422657 0.077581525 -0.061088502 -0.08576901 -0.028342487 0.07283189 -0.06793588 0.107705034 0.059617855 -0.07984283 0.05405166 -0.06123975 -0.07680842 0.09240971 0.10333808 -0.034165155 -0.04389798 -0.09741321 -0.073530085 -0.05344038 0.09966683 -0.13459 -0.042093225 -0.06335075 -0.023341777 -0.10472059 -0.011247637 0.039063975 0.09965723 0.038626533 -0.0846764 -0.03235939 0.0917214 -0.043285187 -0.097238526 -0.01060967 -0.13393669 -0.10501807 -0.006259248 0.016802674 -0.10245251 0.11833913 0.026242007 0.098170795 -0.0071555655 0.045030598 0.123225644 -0.06594763 0.054927792 0.017255899 0.058573138 -0.044305038 -0.023828672 -0.15569818 0.053852066 -0.07056197 -0.011288026 0.0062156585 -0.016378071 0.025048513 -0.06993797 -0.07108244 0.059901528 -0.025354315 0.052287284 -0.07187018 0.06264529 -0.09071404 -0.08825916 -0.077801004 -0.093340516 -0.013563308 0.08434448 -0.004319109 0.055781722 -0.04462301 0.016587334 0.04159984 0.07574947 0.12455808 0.063480414 0.019507235 -0.036146875 -0.10249032 0.048767343 0.05799335 0.0522102 -0.040614057 0.011034735 -0.027806783 -0.03758054 -0.06165565 -0.077811815 -0.05717542 0.09915854 -0.0708165 0.07656068 -0.030755006 -0.032706894 -0.018549092 -0.06436404 -0.062664226 -0.040193826 -0.07506341 -0.111543305 0.021720491 0.05168235 -0.09803569 -0.038160525 0.07800232 0.07955733 0.07902623 0.09899505 0.05244533 0.09795626 -0.06319833 0.044045802 0.11941595 0.077585205 0.022287747 -0.04170057 -0.00037255872 -0.07651755 0.0012638045 -0.09651905 -0.013360482 -0.039106946 0.10590602 0.006896682 -0.018001916 -0.06244921 -0.07159125 -0.03591196 -0.10689304 -0.17658672 0.026194524 -0.0036651187 0.09051151 -0.07112149 -0.007692775 0.0059727225 0.055291545 -0.063654765 0.038220197 -0.0049618795 -0.06722791 -0.07306852 0.11153328 -0.06879075 0.05657783 -0.071944006 -0.08167143 -0.035507265 0.07461958 -0.0664751 0.063952744 -0.08810128 0.093342386 -0.003307653 0.07786384 0.05037549 0.12828931 0.0027228545 0.07257351 -0.04171475 0.05714018 0.11245831 -0.063457735 0.07809636 0.058151074 -0.09212065 0.07739363 0.029963413 0.14842379 0.0890225 0.0030827278 -0.028926551 -0.101805635 0.079737335 -0.13082446 0.09116807 -0.079040825 0.016670957 0.02154585 -0.05115278 -0.04253546 0.03359179 -0.025324687 -0.022065163 0.039922036 -0.07740961 0.09656469 -0.073031686
the 0.12833379 0.095694564 -0.027590355 -0.0026641383 0.009654954 -0.010038925 0.07563598 0.137071 0.069907196 -0.031634998 -0.020706525 -0.0347841 -0.036235895 -0.11880127 0.0082272645 0.11854492 -0.06123141 0.07319449 -0.061649676 -0.091750085 0.08802758 0.028007863 -0.05080071 0.07007552 0.02338094 0.03981208 -0.116363905 0.0665323 -0.06779855 -0.05474963 -0.05506189 -0.016847005 -0.08555214 -0.038239993 0.054057118 0.11055441 -0.044966824 0.006743157 -0.004075011 0.1441401 -0.06493164 -0.060060807 -0.021865163 -0.11916881 -0.0010445679 -0.004784912 0.06605573 -0.015557578 0.21714501 0.07590591 0.13428544 -0.046605874 -0.0021703576 0.088371605 -0.0079385815 -0.06491757 -0.03128729 0.043915916 -0.04888996 -0.011814927 -0.0914389 0.1544361 -0.056907788 0.006234173 0.15909377 0.019682951 -0.03574211 -0.06768944 -0.033155467 0.04209762 -0.028188378 0.063096985 -0.035424028 0.062819384 -0.10840301 -0.084861375 -0.051191114 -0.06323 0.032946672 0.118165016 -0.07355442 0.033852093 -0.08123148 -0.05826267 -0.101270236 0.109703586 0.067539915 0.091059886 0.07384871 -0.056263708 -0.017629296 0.089568585 0.07481299 -0.0043291585 0.024896441 0.04360033 -0.07476703 -0.038900275 -0.023187114 -0.06176457 -0.06864265 0.03847689 -0.101615496 0.09193237 -0.030675976 -0.100081205 -0.01957895 -0.05861997 -0.052056096 0.021362327 -0.07016181 -0.037274193 -0.008716024 0.06422801 -0.045091752 -0.055961546 0.1334491 0.018799406 0.024640227 0.06584123 -0.095409565 -0.025775561 -0.024933899 -0.0016834857 0.22586852 0.044568576 0.093979575 -0.0006954457 -0.007524158 -0.05026358 -0.030009612 -0.18064684 -0.020526502 -0.057730082 0.062291704 0.042872753 -0.006057424 -0.07060716 -0.046132784 -0.078681424 -0.06929291 -0.07316959 -0.058307935 -0.034598105 0.08474322 -0.053006753 -0.01419102 0.014622198 0.08316491 -0.10784791 -0.05874173 -0.009631756 -0.10513769 -0.043332502 0.017166212 -0.04113889 0.07295761 -0.08109552 -0.10317787 -0.04380204 0.022936195 -0.034313977 0.056989938 -0.07094554 0.062092043 -0.038001385 0.030496672 0.0927428 0.074643195 0.07453071 0.06575437 -0.041140087 0.048122376 0.01781793 -0.03934037 0.133605 0.064699985 0.02569816 -0.031198576 0.06253803 -0.083825715 -0.04451734 0.029901538 -0.05273919 0.010171408 0.021860972 -0.09661206 0.06388866 0.0012656309 0.020017266 -0.039398473 -0.0744972 -0.12143352 0.03841686 -0.017790567 0.02902872 -0.017209195 -0.17974113 0.10348625 -0.045454897
and -0.018119767 0.08267192 -0.1654166 0.004700218 0.020965826 0.01692358 0.0394102 -0.013509867 0.06021654 -0.021072818 -0.10574901 -0.108672254 0.023590256 -0.11033659 0.044441395 0.118731916 -0.09654869 0.08164767 -0.12758195 -0.0681111 0.036435507 0.042865615 -0.17645848 0.0068481034 -0.026523422 -0.0027978772 -0.05681285 0.060086988 -0.101673305 0.00934938 -0.049874265 0.023611397 0.005416847 0.015992898 0.118293054 0.120051436 0.015620023 -0.047757607 0.013737319 0.09787176 -0.032092035 -0.03695906 -0.0026762392 -0.098625526 -0.0111858435 -0.080366634 -0.0024615505 -0.09532688 0.098688945 0.01357822 0.028979352 -0.02698071 -0.021345885 0.050057158 -0.13214934 0.034687586 0.050621398 0.06115732 -0.07041233 -0.04316922 -0.044165455 0.119017325 -0.05300813 0.017011255 0.087571844 -0.009104069 -0.0023526088 -0.08733931 -0.07784042 -0.009991537 -0.10606427 0.057248235 -0.07005414 -0.008226984 -0.08024437 -0.010156905 -0.05882881 -0.006744023 0.015128478 0.09855081 -0.008453194 -0.017449394 -0.10402445 0.031818196 -0.0927598 0.13440727 0.14236997 0.06798091 0.08206975 -0.094774626 -0.047824416 0.09891298 0.10237773 0.0010272268 -0.026061382 0.023800937 -0.08062582 -0.11307695 -0.09559597 -0.046272915 -0.106982365 0.047534358 -0.07677285 -0.021651283 0.029480927 -0.112527035 0.021735135 -0.04255732 -0.10147016 -0.008126022 -0.10134219 -0.09657063 0.028269283 0.067820914 -0.1217526 -0.07425948 0.053766575 0.052258756 0.053221717 0.07814651 0.020983722 0.03458822 -0.046010055 0.03434374 0.072374515 0.02805119 0.07506167 -0.036399037 -0.04633632 -0.057915553 -0.06153181 -0.09589127 -0.030578308 -0.044933103 0.043660905 -0.035936978 -0.016112283 -0.156059 -0.09984929 -0.09395412 -0.053205665 -0.11585032 -0.05650852 -0.061522305 0.09254739 -0.07239174 0.02536769 0.044114307 0.055419434 -0.06957301 -0.02233572 -0.06288705 -0.037784874 -0.04245299 0.07319575 -0.02872361 0.07644044 -0.0034127762 -0.08489777 -0.11499119 0.09355749 -0.03962895 0.07500158 -0.09568892 0.0569857 -0.05949087 -0.009175036 0.13422449 0.10996481 0.04179071 0.07819789 -0.08640608 -0.008154554 0.11642943 -0.011325857 0.06594469 0.047140755 -0.042996086 0.03916441 0.07618055 0.09357566 0.034195524 0.026172565 -0.14304438 -0.07842149 0.118771695 -0.04573299 0.048348658 -0.054733336 -0.004941972 0.051811792 -0.04645049 -0.014622275 0.02219969 -0.071687 -0.060053967 0.05544878 -0.02242428 0.14924751 -0.008867423
of 0.08015602 0.0888769 -0.097994216 -0.011814654 -0.00045960848 -0.006718408 -0.0073769484 0.015845552 0.038031116 -0.06035385 -0.07643977 -0.072542615 0.057538677 -0.1058619 -0.0045294696 0.11458508 -0.0023742956 0.03266011 -0.079348184 -0.12116228 0.08703619 0.062074043 -0.10198286 -0.037265882 -0.064525895 0.017686727 -0.13127749 0.04245825 -0.047482304 -0.102122 -0.054624885 -0.061800245 -0.056076735 -0.056551546 0.057178266 0.076680884 -0.006651988 -0.1248609 -0.015422079 0.097249426 -0.04894251 0.004436035 -0.047370046 -0.06568127 -0.0005600321 -0.08471724 -0.0021189754 -0.06523224 0.07275285 0.16309422 0.08248632 0.033584554 0.011213777 0.09321583 -0.047009446 0.032022458 0.0040473538 0.0025040363 -0.056921843 -0.0067246645 -0.022599572 0.07461484 -0.0012558892 -0.0076023825 0.05730105 -0.077025644 0.06904396 -0.16763064 -0.084567 -0.0027211506 0.010532385 0.0018748221 -0.078751005 0.02204696 -0.09174033 -0.031340484 -0.062471766 -0.05461167 0.011488273 0.123413734 -0.03677981 0.0015106575 -0.098704696 0.030790294 -0.087985754 0.12858514 0.099894024 0.06914772 0.088192835 -0.048471104 -0.13673632 0.10245456 0.07520291 0.04298715 -0.039438866 0.016357712 -0.0140533615 -0.037744693 -0.06696443 0.07255899 -0.0866508 0.106948644 -0.07810697 0.0758455 0.026226105 -0.04509401 0.008481219 -0.06283826 -0.129441 0.007001314 -0.011074868 -0.10060689 -0.009388187 0.10417799 -0.09469031 -0.055044636 0.1288974 0.049102098 0.111626886 0.06396233 0.02010415 0.0214836 -0.13333501 0.03384379 0.06468492 0.063595 0.07852718 -0.040013105 -0.1075982 -0.1731911 -0.061375365 -0.11886704 0.08066349 -0.02844972 0.07987793 0.043477315 -0.007191705 -0.09268854 -0.10070191 0.06499173 -0.08738716 -0.11038891 0.015027909 0.033676088 0.05340396 -0.13273627 -0.05694696 0.035763644 0.07190057 0.026639298 -0.07032465 -0.033867035 -0.044444636 -0.026992854 -0.02800387 -0.028924122 0.081273474 -0.05792849 -0.056800265 -0.017638505 0.05997613 -0.09079181 0.11005354 -0.06316645 -0.0013416762 -0.0953411 0.087499395 0.11510559 0.013206486 0.079264686 0.06912739 -0.075102486 -0.011432181 0.082731664 0.0011441015 0.16478418 0.05343448 -0.05527845 0.00961859 0.011383151 0.026775347 0.01424379 -0.022071915 -0.14499918 -0.051735885 0.07448809 -0.07124936 0.116690315 -0.11861062 -0.01057659 -0.02697998 0.023249144 -0.029009052 0.07476287 -0.019432697 -0.02786893 0.021523345 -0.03251437 -0.013339405 -0.005126728
to 0.10644726 0.007028882 -0.09382963 -0.035372794 0.024120627 0.0049306457 0.010529797 0.047978852 0.056998625 -0.05288482 -0.050108854 -0.09154127 0.06981924 0.0056596156 0.059429098 0.1290853 -0.061282113 0.09723005 -0.05374981 -0.061456904 0.12857239 0.07177951 -0.13259915 -0.061551582 -0.037320957 -0.02336664 -0.035814255 0.039868478 -0.049958996 -0.07562813 -0.074452646 -0.02010481 -0.005825832 0.014413089 0.12529042 0.1653453 -0.007539805 -0.05844256 -0.057996728 0.023564694 0.0015127411 -0.07666267 0.046662934 -0.03619177 -0.08196641 -0.04576502 0.06961997 -0.03178247 0.10013949 0.07409948 0.023706386 -0.046578944 0.047942165 0.10342646 -0.12541677 -0.028481022 0.081219465 0.11577456 -0.099668905 0.081710175 -0.06275793 0.0740894 -0.11308681 0.03715058 0.08693181 -0.04296112 0.07609257 -0.045885686 -0.0572041 0.07443186 -0.02198875 0.036927942 -0.0143236 0.07262722 -0.032292124 -0.0039727916 -0.078626946 -0.04701799 -0.00019582058 0.105035685 0.01660785 -0.01631535 -0.061457694 -0.01319988 -0.056149613 0.14198816 0.13062961 0.10182624 0.018388111 -0.1413232 -0.0502614 0.100524105 0.10257725 0.040674563 -0.009491063 0.10095393 -0.020735128 -0.024417272 -0.08556201 -0.063910455 -0.108903654 0.034387123 -0.08246781 0.030212523 0.014060294 -0.12513173 -0.021590363 -0.03729478 -0.14743994 -0.074861586 -0.06130178 -0.07121406 0.046754126 0.06182633 -0.039327476 -0.055547547 0.064833224 0.10840256 0.048686806 0.03394304 0.04390529 0.06484697 -0.037413407 0.018662674 0.077289306 0.059676986 0.023841683 -0.019098138 -0.11258393 -0.0705984 0.0070071053 -0.13228619 -0.038076226 -0.08168205 0.052941523 -0.03468918 -0.03548352 -0.09450389 -0.06273808 -0.10746085 -0.039052017 -0.02739981 -0.1301148 -0.0036529624 0.06979468 -0.107496716 -0.06222819 0.013327442 0.086387135 -0.010863734 -0.058698777 -0.10715658 -0.13037665 -0.037658755 0.014705706 -0.04563757 0.05383916 -0.022098618 -0.13453256 -0.10320565 0.04708852 -0.04326822 0.0713186 -0.051425647 0.12691425 -0.09037923 0.031537052 0.08079079 0.09148315 0.10966757 0.033374414 -0.043868687 0.045452587 0.025815185 -0.018700512 0.06806427 0.083708785 -0.027106386 0.102733135 0.07042738 -0.01852191 0.039844565 0.012463242 -0.13598974 -0.07383484 0.096208744 -0.1057661 0.111223616 -0.025500318 0.032447934 0.026764981 -0.024514334 -0.025031418 0.024201326 -0.06578864 -0.05348443 0.075930655 0.04124313 0.06298764 -0.03183753
in 0.05943344 0.07776231 -0.051729992 -0.037133187 0.07046015 0.06741211 0.073401585 0.07131076 0.10893831 -0.06417424 -0.05541493 -0.047302447 0.04542794 -0.09026881 0.005872818 0.04599961 -0.017371293 0.044447463 -0.06625725 -0.12780985 0.022009857 0.044062443 -0.15261248 -0.053643715 -0.0778892 0.027338756 -0.12142609 0.13143873 -0.054177772 -0.036677636 -0.076172024 -0.020921063 -0.076399066 0.047268532 0.035830587 0.12407902 -0.05027326 -0.027306795 -0.069744356 0.09066005 0.0004977622 -0.053444125 -0.05313922 -0.08632608 -0.054471504 -0.089552805 0.025271617 -0.11964384 0.10967495 0.14732948 0.048466608 0.0055406983 0.04197519 0.07991363 -0.036585134 0.024689497 -0.0065809223 0.019501176 -0.09122457 -0.010773027 -0.030229434 0.076136924 -0.114490576 0.01806794 0.1157788 -0.057197023 0.071675524 -0.052967083 -0.051885605 0.07183633 -0.033141766 0.0047328225 -0.021828933 0.04310995 -0.06488525 -0.022449583 -0.092661634 -0.050607335 0.04798403 0.12515849 -0.0006685287 0.032186203 -0.08340668 -0.005850495 -0.08172717 0.08541635 0.09561076 0.11263248 0.061404034 -0.07039566 -0.13250642 0.08449181 0.08447159 0.0016959134 -0.019239917 0.056336384 -0.06018745 -0.102653496 -0.05501335 -0.06050617 -0.09934428 0.020575296 -0.044666745 0.09325034 0.023711054 -0.07762006 -0.012231202 -0.04084928 -0.097819276 0.011955606 -0.12014136 -0.031143622 0.04092867 0.095459916 -0.08875288 -0.03548098 0.05560998 0.033751342 0.10374363 0.10947081 0.040597126 0.05367633 -0.077902205 0.065121785 0.057187993 0.04972431 0.06589564 -0.05357112 -0.08449869 -0.054256506 -0.01373003 -0.15267092 -0.019904386 -0.06743795 0.051151466 -1.4129394e-05 0.018176086 -0.07864084 -0.08327577 -0.05179293 -0.080220796 -0.098099 -0.05629202 -0.078883186 0.07189836 -0.09629156 -0.006050253 0.032547772 0.088143766 -0.09592322 -0.034717772 -0.07588064 -0.112350956 -0.08253923 0.021737136 -0.057525203 0.07204205 -0.07380111 -0.08101678 -0.067299716 0.00058079424 0.005002817 0.109476104 -0.015979113 0.10551659 -0.14137967 0.017982615 0.13157345 0.032482043 0.04616793 0.14439934 -0.051015567 0.07215003 0.0332021 -0.040594816 0.102716915 0.077925675 -0.05054812 0.051259536 0.020404486 0.021938937 0.08026662 -0.010179076 -0.0767693 -0.11168646 0.05051098 -0.1265082 0.14623982 -0.0062213675 0.043428525 -0.015383926 -0.038876485 -0.05106334 0.076463394 -0.036373593 -0.03448285 -0.030624453 -0.047210284 0.006123659 -0.021836279
our 0.07321152 0.029198319 -0.054560367 -0.08145549 0.01839393 0.035492897 0.041076723 0.046236664 0.024763802 -0.07787946 -0.08466206 -0.10419268 0.07546182 -0.08924438 0.04256935 0.093747534 -0.060576703 0.06772455 -0.12263943 -0.090886734 0.04879409 0.049221985 -0.114412494 -0.07094475 -0.03792302 0.06690351 -0.085924074 0.0514282 -0.08439746 -0.0561139 -0.06673511 0.004590049 -0.04528449 0.01249131 0.12594612 0.087341756 -0.09747761 -0.089342795 -0.076517746 0.05511581 -0.05832311 -0.047716077 -0.01429158 -0.081493765 -0.11218948 -0.034175448 0.06451321 -0.029666726 0.09831433 0.027934823 0.040818304 -0.02601485 0.08818815 0.060952865 -0.0636201 0.01909882 0.07471688 0.069807395 -0.09162642 -0.041632645 -0.056467187 0.06260465 -0.06428516 -0.0070471433 0.117324986 -0.04417915 0.005248079 -0.08916366 -0.052492768 0.05873197 -0.013424845 0.046791382 -0.055664714 0.060923252 -0.045225225 -0.0668484 -0.050187904 -0.094086945 0.010139922 0.09403895 -0.03307233 0.02277997 -0.04463648 0.030661693 -0.042501215 0.13278995 0.08520317 0.08117462 0.10306547 -0.11396886 -0.008471897 0.08919937 0.10601023 0.07763926 -0.010612912 0.035378385 -0.047522176 -0.1271301 -0.03666793 -0.070164055 -0.103906676 0.049994834 -0.065363094 0.06371246 -0.015536218 -0.059780806 -0.06340994 -0.085037164 -0.08931187 -0.0836259 -0.12843417 -0.065468356 0.07111497 0.07235964 -0.10049763 -0.070710056 0.07671137 0.050995164 0.08941515 0.057342038 0.009170112 0.046704017 -0.07584311 0.046460535 0.085300945 0.018294929 0.07356614 -0.028736377 -0.059860237 -0.081587985 -0.09518602 -0.087194756 -0.020584574 -0.11010341 0.07449922 0.03244014 -0.0013473742 -0.12908043 -0.05474495 -0.09594518 -0.06059847 -0.113423474 -0.02254949 0.003561864 0.08604313 -0.081726864 -0.050178703 0.0043235435 0.10199117 -0.052850455 -0.11767568 -0.039829988 -0.14215644 -0.04106417 0.07798372 -0.08801632 0.043453578 -0.020331483 -0.09216238 -0.102237254 0.068725795 0.0043453467 0.03843391 -0.050978243 0.066840716 -0.09257892 0.02602132 0.08160934 0.080617204 0.085212655 0.078073494 -0.13636853 0.051580377 0.12760629 -0.009434017 0.079646714 0.060864504 -0.055260804 0.039241567 0.07024834 -0.042469297 0.0032046302 -0.023895934 -0.051498584 -0.04272698 0.06606878 -0.040530924 0.069335334 -0.07177554 0.08623774 0.05533222 -0.075483605 -0.06545417 0.068604 -0.119369015 -0.08016051 0.03587731 -0.069357395 0.043897405 -0.05614819
a 0.08254771 0.0482677 -0.068860024 -0.016443025 0.03382555 0.064765096 0.07040574 0.093406506 0.09917616 -0.076121874 -0.0910209 -0.10438864 0.063168325 -0.043424807 0.094672 0.098317645 -0.04408957 0.06452698 -0.10547033 -0.038373396 0.028401226 0.062224757 -0.10305142 -0.022552457 -0.04095267 -0.012323922 -0.07096226 0.09476731 -0.10695765 -0.019966425 -0.08239056 0.025043515 -0.047824837 0.03297865 0.07562657 0.12862177 -0.029357271 -0.05720195 -0.049063638 0.092206635 -0.012126096 -0.011514002 -0.06817471 -0.076249704 -0.08947681 -0.04177522 0.08113458 -0.034158748 0.103687115 0.015399037 0.1032297 -0.020271854 0.013735563 0.033106044 -0.073535495 -0.032454133 0.048378296 0.07839373 -0.07482938 -0.064272776 -0.105271675 0.06410703 -0.024872 -0.007259753 0.06999248 -0.011869012 0.08678343 -0.036407296 -0.07363544 0.036063064 -0.082258895 0.008392096 -0.02314213 0.039001506 -0.1060554 -0.083529085 -0.07112627 -0.106908634 0.012725487 0.12255767 -0.062109668 0.014853852 -0.08283497 -0.016306676 -0.057199895 0.09763706 0.1265271 0.13065387 0.08480208 -0.08502832 -0.067514546 0.08199908 0.09869647 0.07334319 -0.035268344 0.09057744 -0.098281264 -0.07282387 0.004663528 -0.10349038 -0.0942716 0.043832343 -0.07765295 0.06998262 0.039442975 -0.104211226 -0.075130045 -0.10170858 -0.051562905 -0.052854348 -0.07037856 -0.035852917 0.07653852 0.10103492 -0.10490353 0.020094737 0.09146434 0.03067239 0.082505375 0.057325136 0.054199677 0.049114954 -0.058116283 -0.005413994 0.060394775 0.06135058 0.07581118 -0.05735702 -0.040980328 -0.065888405 -0.014609135 -0.13776152 -0.010595484 -0.101912566 0.06047008 0.042183816 -0.04217954 -0.13155787 -0.051252965 -0.045061354 -0.10738106 -0.11822695 -0.045915425 0.0078022084 0.10494516 -0.06979576 -0.041602004 0.03142212 0.11751268 -0.0077839014 -0.0870794 -0.024977544 -0.107856765 -0.07956052 0.009312434 -0.085645825 0.09121224 -0.042958975 -0.07195817 -0.102500275 0.079653196 -0.011846922 0.060048737 -0.09701198 0.10670726 -0.0946882 0.04023342 0.07693086 0.07247311 0.08332055 0.047999408 -0.06966222 0.06987756 0.08195761 -0.08651147 0.10612742 0.068657786 -0.035994712 0.012827029 0.029512832 0.032086074 0.024748532 -0.05998146 -0.075473435 -0.05124342 0.057566673 -0.076119274 0.062353685 -0.063192725 -0.038871553 0.010956914 -0.030489758 -0.09099527 0.10213205 -0.047006536 -0.031238006 0.04890519 -0.078663334 0.015911834 -0.07910259
for 0.10344201 0.058968138 -0.09331949 -0.029644957 0.04983964 0.088298984 0.009853713 0.08365409 0.13127704 -0.028068233 -0.055843916 -0.04388819 0.034942236 -0.06692624 0.07553805 0.094535924 -0.05893654 0.05433599 -0.048804738 -0.10093937 0.07400588 0.060021803 -0.12713306 -0.009939357 -0.04157558 0.015446409 -0.05743303 0.025477188 -0.09809866 -0.08481145 -0.09439462 -0.03525051 -0.029566227 0.01603967 0.11932101 0.13074295 -0.07086106 -0.09866092 -0.009898305 0.12821744 -0.0017912125 -0.07153276 -0.028484024 -0.07023441 -0.0649892 -0.036119696 0.049106106 -0.09666112 0.11059318 0.09172376 0.05483048 -0.029410826 0.005098368 0.06414345 -0.056111526 0.039057728 0.007118945 0.07638963 -0.037561405 -0.0019605483 -0.056610435 0.10656583 -0.056012012 0.038954943 0.053692624 -0.06887029 0.014300885 -0.07318223 -0.10401513 0.07587408 -0.029089104 -0.0209664 -0.05141277 0.042429544 -0.07176332 -0.0033202062 -0.09445389 -0.046651807 -0.032700595 0.09731826 -0.04023202 0.01568832 -0.0931233 -0.0022406334 -0.075769864 0.1302643 0.072642185 0.10980851 0.072777644 -0.08524041 -0.08885684 0.06742079 0.083666876 0.057779465 -0.019873938 0.059009712 -0.0342459 -0.07774487 -0.076502085 -0.045855887 -0.103833325 0.05498915 -0.051165164 0.0362232 0.030110482 -0.089090236 0.01880229 -0.06882007 -0.1318526 -0.047277056 -0.054007277 -0.115049765 0.037889604 0.045616858 -0.09109061 -0.07145763 0.0848877 0.041785777 0.06863208 0.1354878 0.063908756 0.012328227 -0.019280499 0.047112346 0.10196754 0.02294347 0.059329364 -0.03762974 -0.09194547 -0.10007197 -0.053630523 -0.15290666 0.08713948 -0.050604865 0.11357338 0.031527016 0.0045160777 -0.13674964 -0.06415443 -0.064163804 -0.0826833 -0.09604813 0.004746973 -0.014122229 0.0585832 -0.07724469 -0.045500726 0.021597229 0.07946957 -0.03398208 -0.06075705 -0.06514494 -0.10862613 -0.039521784 0.08707469 -0.07493849 0.09620096 -0.04004115 -0.09210925 -0.12623997 0.06750916 -0.059693705 0.06644693 -0.014783462 0.109786876 -0.088169314 0.03602385 0.11543292 0.06948751 0.10857457 0.065329514 -0.07782782 0.03900284 0.044073705 -0.051045813 0.09321305 0.068737455 -0.04034703 0.032424577 0.054309532 0.03374667 0.06955984 0.04840757 -0.052133784 -0.068135574 0.06746164 -0.111585595 0.13354151 -0.069634184 0.040657192 0.03026989 -0.01370826 -0.104221 0.050236322 -0.022660697 -0.05118426 0.04585678 -0.032009117 0.016175853 -0.040793683
or 0.11293302 0.0693427 -0.13657892 -0.029804211 0.03713337 0.06117711 0.04385227 0.08071648 0.06492619 -0.06473596 -0.067006685 -0.11006528 0.037844334 -0.07741065 0.025234047 0.14158648 -0.07852369 0.060808532 -0.05865623 -0.0884355 0.07055846 0.034024198 -0.11190006 -0.02574278 -0.04252742 0.014546943 -0.03825535 0.019316614 -0.09144983 -0.028200913 -0.12144252 0.014556021 -0.06024247 0.065111324 0.10794087 0.11424007 -0.0006441377 -0.07712101 -0.010677177 0.08688582 -0.030413315 -0.05018634 -0.031073645 -0.069554985 -0.1132729 -0.051361658 0.03961044 -0.010960268 0.069936424 0.09117494 0.060755447 -0.049259655 0.0055361963 0.03968356 -0.08295903 0.048050974 0.044721637 0.06120767 -0.10561891 -0.05057496 -0.08661739 0.094014704 -0.026065314 0.045405276 0.09179394 -0.069323674 0.08142216 -0.083365336 -0.025569666 -0.011826605 -0.08266371 0.038950935 -0.090489246 0.05971755 -0.045350112 -0.05915281 -0.048079476 -0.06929226 0.013737285 0.070657566 -0.04511052 0.03445558 -0.050578207 0.025262805 -0.13188612 0.1079288 0.101252116 0.072630346 0.057756115 -0.10577421 -0.052034833 0.09939301 0.047026783 0.092628226 -0.036949214 0.061291613 -0.08030863 -0.101423115 -0.035863616 -0.031490747 -0.1353503 0.06753312 -0.06896505 0.022811318 0.043577366 -0.09772956 -0.050151803 -0.04599009 -0.13044377 -0.0038454433 -0.08779215 -0.06810552 0.03003013 0.059821654 -0.16008586 -0.03864862 0.056004 0.049991153 0.07715044 0.05674456 0.07610216 0.09124938 -0.034182537 0.050406866 0.097216 0.05673143 0.08201303 -0.06454879 -0.06751164 -0.041539606 -0.060829625 -0.11148138 -0.040620003 -0.0890581 0.07857444 0.03627923 -0.0280213 -0.11760668 -0.06556174 -0.04112615 -0.057117194 -0.12526882 -0.061029866 -0.026625985 0.08638291 -0.06396285 -0.034040086 0.042998336 0.055512547 -0.05783301 -0.0526471 -0.07700965 -0.08901567 -0.058975343 0.041631132 -0.039143685 0.1319448 -0.058200926 -0.0746474 -0.0721147 0.07607426 -0.026074337 0.07333287 -0.089455225 0.10152115 -0.11641305 0.06614471 0.09672332 0.084759675 0.07364118 0.06538802 -0.05392936 0.027210694 0.081842646 -0.022348331 0.09290789 0.07225304 -0.087563425 0.073198855 0.08994359 0.02092861 0.054976936 0.029402003 -0.107467875 -0.042190224 0.04006994 -0.1012084 0.12335473 -0.026657796 0.05049438 -0.02376955 -0.050174255 -0.054467965 0.018101247 -0.052491248 -0.051470835 -0.006172608 -0.055624068 0.059928518 -0.023014328
we 0.08085811 0.041458268 -0.07838934 -0.071881436 0.050759867 0.08192103 0.07914657 0.05025833 0.08669806 -0.055171117 -0.074931085 -0.114958234 0.060285483 -0.046043742 0.09042051 0.083041325 -0.06720496 0.051415354 -0.067578055 -0.053988434 0.06252976 0.07375882 -0.1144049 -0.045348864 -0.0872808 0.020952744 -0.05593797 0.0975766 -0.061387468 -0.10071055 -0.114983335 -0.03870479 -0.000667627 0.030717077 0.124359444 0.123104155 -0.0697245 -0.08635074 -0.018274674 0.100646324 0.002170073 -0.05813767 -0.027606046 -0.06329417 -0.07540666 -0.015788432 0.055982444 0.001105648 0.065190285 0.033275597 0.058491215 -0.028205842 0.08534705 0.014621061 -0.057612836 0.017782222 0.08213715 0.08657616 -0.08755164 -0.031606503 -0.047928706 0.048024863 -0.07946142 0.013880555 0.078264326 -0.067272335 0.03558774 -0.039418053 -0.04009257 0.064134 -0.02103025 0.02920952 -0.016190168 0.08939103 -0.07400688 -0.06531182 -0.04978032 -0.07341809 -0.008996453 0.091354266 -0.08849936 -0.018815737 -0.08599527 -0.004593936 -0.05942701 0.087960966 0.09523691 0.099078804 0.060111117 -0.12769926 -0.10005095 0.09138972 0.059640504 0.07263695 0.00067714165 0.04810753 -0.011520119 -0.107851006 -0.04967025 -0.10773008 -0.1101676 0.05724665 -0.058924615 0.04542452 0.057226676 -0.0745941 -0.053384192 -0.063835375 -0.08527634 -0.01003621 -0.087948024 -0.064249046 0.05138246 0.08160228 -0.07517788 -0.05114352 0.055311326 0.07019943 0.09592017 0.07292408 0.041017897 0.019962335 -0.08862072 0.009345111 0.062197577 0.047278557 0.07088835 -0.07399372 -0.07879426 -0.04173201 -0.043379273 -0.094992906 -0.0031687885 -0.16441625 0.06782527 0.04405968 -0.051951263 -0.08373797 -0.07927687 -0.06356578 -0.06980949 -0.030169766 -0.07448088 -0.041635152 0.10886231 -0.12702589 -0.07338857 -0.01811561 0.072671585 -0.10397649 -0.05760824 -0.09237102 -0.1300777 -0.062665135 0.034567464 -0.046865724 0.038381074 -0.009792218 -0.09206175 -0.06758219 0.11439427 -0.0048899185 0.087053366 -0.05771055 0.09022626 -0.0979128 -0.008570781 0.047855716 0.09376537 0.097930744 0.021170694 -0.09707616 0.07528518 0.052653477 -0.098450676 0.03872315 0.11957945 -0.07646545 0.07535318 0.0899109 0.038463812 0.08351151 0.003933861 -0.083350345 -0.088104494 0.0885405 -0.08535911 0.07946282 -0.091672234 0.09332659 0.019638596 -0.04860766 -0.039230682 0.051644027 -0.0631194 -0.05604953 0.034227002 -0.07155832 0.06781846 -0.016576882
on 0.059761602 0.095460586 -0.071455635 -0.01918096 0.056157894 0.07197715 0.006485573 0.06877539 0.08919874 -0.06611605 -0.1165017 -0.064739116 0.04056107 -0.075292915 0.07071932 0.15116353 -0.030031076 0.060863357 -0.10986574 -0.09165403 0.036567472 0.07547828 -0.12755571 -0.040779248 -0.04777713 0.022425476 -0.076160535 0.06811078 -0.052515477 -0.050686825 -0.0849132 -0.041540913 -0.02266387 -0.06909014 0.09657956 0.10351474 -0.03873468 -0.10739874 -0.023479983 0.10378186 -0.025035737 -0.023997704 -0.0025809817 -0.049385432 -0.11512767 -0.021077817 0.04445799 -0.019300375 0.10440675 0.096443735 0.063444994 -0.03835913 0.046301525 0.031798474 -0.091626324 -0.0010291609 0.0146593135 0.066837035 -0.074368626 -0.012134215 -0.046765897 0.022880415 -0.024744716 -0.01909502 0.06641761 -0.02807203 0.022818077 -0.13741353 -0.08967559 0.046767008 -0.05194114 -0.0016910965 -0.062808216 0.052436396 -0.030738734 -0.017297754 -0.08115912 -0.09011269 0.007851358 0.08952307 -0.06263147 0.071156085 -0.03467198 0.038057107 -0.08091424 0.13615192 0.13689531 0.10358565 0.09162175 -0.094488166 -0.04909464 0.09655594 0.13870406 -0.0021975513 -0.033705477 0.058250934 -0.024554044 -0.13514417 -0.05578237 -0.113012135 -0.11235803 0.10438544 -0.03976028 -0.012840714 0.047505207 -0.082126066 -0.07544819 -0.079577684 -0.12524746 -0.018827513 -0.10719467 -0.104494676 0.0733855 0.0894883 -0.083239675 -0.036044285 0.10391159 0.048527155 0.08682108 0.058117595 0.041523296 -0.0070353323 -0.0793541 0.058033638 0.07571763 0.01619006 0.09693513 -7.4126096e-05 -0.10808615 -0.0853613 -0.045258258 -0.09009722 0.027331088 -0.07705246 0.06619092 0.022329483 0.0061944323 -0.12536108 -0.0547812 -0.045044802 -0.079798885 -0.11785428 -0.030066045 -0.013984979 0.02984072 -0.0713159 -0.031295493 -0.046829436 0.10604251 -0.060956858 -0.07685366 -0.067651115 -0.096777506 -0.06478685 0.0063001183 -0.045280818 0.071320064 -0.08391144 -0.06631774 -0.07951786 0.059173238 -0.004504316 0.0638751 -0.05973506 0.101154864 -0.09652073 0.044855185 0.13390888 0.061223257 0.035271775 0.06585199 -0.06305464 0.05339209 0.057626646 -0.04022135 0.09364091 0.08730028 -0.040289097 0.015945954 0.055368416 -0.012141809 0.016323846 -0.025800023 -0.07643959 -0.066551805 0.056834236 -0.11375303 0.09694882 -0.092444226 0.09757628 0.027890546 -0.027063489 -0.05215076 0.07926628 -0.011981795 -0.05701078 0.04948328 -0.065161824 0.022521464 -0.029266482
as 0.0441295 0.09397724 -0.08172063 0.0014484887 0.04569829 0.07816661 0.04756015 0.13357961 0.092609085 -0.02394484 -0.09595943 -0.09791157 0.053604793 -0.0522836 0.09454095 0.1402168 -0.04896113 0.02697392 -0.087024935 -0.075709514 0.0719833 0.04410223 -0.13063848 0.03571629 -0.053759847 0.01242119 -0.063958764 0.04016084 -0.097593166 -0.09560596 -0.11934542 -0.03626368 -0.049174286 0.021243775 0.07982032 0.12209122 -0.04428285 -0.11449741 -0.046219304 0.11325371 0.024809403 -0.027337562 -0.054400206 -0.057013948 -0.050593708 -0.037222587 0.07893964 -0.055041306 0.10758112 0.079448424 0.14495456 -0.01238527 0.0001568881 0.05793789 -0.07906498 -0.022881644 0.029677052 0.07367304 -0.111333236 -0.03526312 -0.09862362 0.08963922 -0.079012975 0.024557527 0.10083436 -0.07011036 0.031099461 -0.087205455 -0.047942724 0.049338385 -0.060469337 0.009379419 -0.05405483 0.058391012 -0.059614487 -0.04773066 -0.046191555 -0.07477178 0.03347888 0.07206333 -0.03502341 0.026893599 -0.020316504 0.0126601495 -0.06683974 0.093111105 0.10056952 0.12596358 0.07178934 -0.059040282 -0.08967123 0.08905875 0.095118284 -0.008217858 -0.068170585 0.07615924 -0.06627519 -0.06987202 -0.10228538 -0.0672203 -0.12083364 0.086768486 -0.04234617 0.041843183 -0.015607794 -0.074118406 -0.012753225 -0.065637834 -0.09347824 0.01593177 -0.05687783 -0.07092819 0.04581614 0.10378967 -0.084100574 -0.056991797 0.045838602 0.02771675 0.13002859 0.10128387 -0.00052724505 0.06694504 -0.087536044 0.053941146 0.06521751 0.073575824 0.10674836 -0.047195666 -0.09218536 -0.107515246 -0.05450879 -0.10486342 -0.011378602 -0.10757532 0.06085789 0.022306431 0.016685778 -0.15637596 -0.08850508 -0.044875696 -0.057567555 -0.078591645 -0.08218105 -0.031751968 0.07565035 -0.07313711 -0.056289874 0.015807766 0.041039575 -0.03408797 -0.050085336 -0.0588562 -0.058819458 -0.03515874 0.014710841 -0.06884355 0.08776209 -0.031826872 -0.08382422 -0.10862877 0.0639622 -0.034325592 0.02938087 -0.05595211 0.08854524 -0.08583235 0.0748398 0.09614806 0.03920648 0.07581044 0.07194686 -0.0742091 0.045771148 0.013391133 -0.07862502 0.13379651 0.06837574 -0.044862516 0.020877808 0.03128915 0.0149891125 0.07254604 0.071167916 -0.055204745 -0.061899614 0.07970345 -0.08026239 0.09830114 -0.042930856 0.06340092 0.0024772703 -0.039373893 -0.08354047 0.06267169 -0.04721566 -0.020954793 0.025781102 -0.042072207 0.087477714 -0.020626836
with 0.059115656 0.062613055 -0.09248549 -0.024796741 0.03543252 0.06636995 0.06393064 0.057446554 0.06658529 -0.02459034 -0.04371884 -0.092337295 0.043554287 -0.028014323 0.053628955 0.12791798 -0.077274926 0.08111103 -0.07525704 -0.08561839 0.058408722 0.07415212 -0.106947705 -0.0170783 -0.068175495 0.052580964 -0.049102377 0.10767532 -0.083376154 -0.061398428 -0.08112468 -0.0025855654 -0.044624474 0.036818232 0.119523555 0.10166726 -0.051317405 -0.07410865 -0.074961424 0.113516934 -0.03407411 -0.06342892 0.03448294 -0.10728746 -0.089442626 -0.02415263 0.07195644 -0.07092079 0.09601873 0.109986626 0.05520123 -0.05959462 0.027536185 0.056964703 -0.071570486 -0.013592854 0.047708247 0.110780224 -0.08458794 0.01368383 -0.04764436 0.09749605 -0.0923258 -0.012699403 0.08566766 -0.06499767 0.045797016 -0.08424199 -0.089145236 0.06377517 0.00077412545 0.018775055 -0.0693306 0.052738182 -0.08574053 -0.068022914 -0.08142046 -0.05195361 -0.02252857 0.10972551 -0.08321006 0.0029957702 -0.098233484 0.0020892385 -0.12677428 0.08627026 0.09378154 0.10799109 0.06903703 -0.10263052 -0.09814213 0.10210566 0.0833254 0.08755778 0.003776228 0.028754432 -0.044760965 -0.08650372 -0.050097562 -0.058249537 -0.12031263 0.0523204 -0.08487835 0.047635738 0.0016538478 -0.10696652 0.020930348 -0.059737284 -0.11856576 -0.02825974 -0.10085865 -0.09019221 0.03635729 0.08177549 -0.11660542 -0.06827196 0.09427506 0.026582131 0.09729416 0.05893581 0.024421427 0.04669085 -0.057534706 0.06723163 0.09063451 0.102711014 0.07396961 -0.018087845 -0.08126246 -0.06182663 -0.050721187 -0.07647819 0.006754472 -0.07618496 0.058576643 0.07060742 -0.019342486 -0.09347508 -0.086592816 -0.08185928 -0.073132955 -0.092619486 -0.052954875 -0.017523335 0.080441594 -0.110759854 -0.021525906 0.028046185 0.059835836 -0.048426364 -0.05002328 -0.083730094 -0.10156359 -0.09308025 0.033738844 -0.03863211 0.08850849 -0.04121614 -0.04933126 -0.05285017 0.075430185 -0.03150992 0.049183093 -0.099500656 0.09206381 -0.0714139 0.0744696 0.11596135 0.11381059 0.075520165 0.050976004 -0.07401039 0.01009823 0.05188746 -0.043860115 0.08898628 0.06302098 -0.033290125 0.05542623 0.06468119 0.01872326 0.022760706 0.06609709 -0.08318544 -0.049404234 0.07945181 -0.08864697 0.10394599 -0.06628982 0.068954185 0.0065797423 -0.04686377 -0.058761247 0.050054282 -0.043873116 -0.061639097 0.05401353 -0.040244006 0.029604597 0.0048504216
is 0.063578054 0.06684177 -0.1213463 -0.037995845 0.032763757 0.0751746 0.038451474 0.062081542 0.10849156 -0.09564498 -0.08909725 -0.07575028 0.076541126 -0.0695269 0.0321773 0.09497993 -0.03536112 0.06717418 -0.092262544 -0.06469724 0.05582185 0.06038659 -0.09874307 0.002270398 -0.06427134 -0.0050826473 -0.07754339 0.087816246 -0.10120052 -0.09968267 -0.06351903 -0.015208201 -0.0448402 -0.00046247308 0.10372965 0.093680784 -0.057115585 -0.11406831 -0.0049655205 0.08050249 0.005629386 -0.049820524 -0.044909168 -0.07552495 -0.094405994 0.0037249797 0.05982817 -0.025090989 0.08657418 0.074989766 0.124017015 -0.024704093 0.015233361 0.078025766 -0.06262196 0.038852394 0.057265237 0.09050831 -0.072656676 -0.057622943 -0.077948794 0.09407129 -0.056008648 0.046650667 0.08508695 -0.0035906495 0.031805273 -0.117919065 -0.06803719 0.06261354 -0.0046592806 0.0058019594 -0.07739874 0.06287791 -0.08745873 -0.04515451 -0.07802403 -0.09213395 -0.0020073035 0.13484709 -0.037068974 0.017510973 -0.060952123 0.05873664 -0.081876144 0.115215965 0.08517528 0.086390145 0.06713128 -0.069503695 -0.0650049 0.11107025 0.07848863 0.063901596 -0.025737895 0.05588944 -0.049276207 -0.06439857 -0.05719129 -0.08126246 -0.1261336 0.12924348 -0.091594644 0.09541165 -0.003754418 -0.06759473 -0.056743342 -0.09216818 -0.10231545 0.0071175746 -0.07470673 -0.0814499 0.053721163 0.11813706 -0.0656675 -0.028350756 0.08725314 0.029821659 0.07545018 0.07646515 0.024777215 0.04098293 -0.085994266 0.037132733 0.087762505 0.016484333 0.030388372 -0.04725302 -0.07740644 -0.0723839 -0.052367613 -0.12941693 0.03998395 -0.10849197 0.06721222 -0.009212711 -0.030266462 -0.12931249 -0.10152908 -0.09848673 -0.108914785 -0.09443429 -0.07694861 -0.007803302 0.10824615 -0.07156412 -0.02145629 0.020465815 0.07941973 -0.028460639 -0.022720357 -0.027245086 -0.10511586 -0.082835495 0.025898185 -0.047714807 0.08210721 -0.07235127 -0.037100803 -0.042528186 0.06949761 -0.049213465 0.08732056 -0.065498024 0.06537328 -0.08538118 0.053684305 0.096021876 0.10563141 0.0654922 0.047934365 -0.06772385 0.035090726 0.04246385 -0.05432504 0.07656918 0.09319159 -0.024156837 0.059693776 0.041241597 0.04648736 0.055459905 0.00648463 -0.026267402 -0.05419963 0.08389758 -0.10608138 0.12071601 -0.08044334 0.07989758 0.034641467 -0.044455893 -0.066174574 0.042420603 -0.054634295 -0.044130176 0.03184265 -0.058954917 0.07178203 0.0024680262
are 0.07618335 0.07007392 -0.1165892 -0.059299625 0.039713226 0.07456213 0.037795845 0.07507597 0.10196241 -0.0931402 -0.11252874 -0.090391524 0.040507596 -0.06615694 0.028862838 0.08882803 -0.035167776 0.06171475 -0.113200046 -0.11343975 0.055293564 0.049455106 -0.121875934 -0.018740904 -0.06971906 0.027434142 -0.067571536 0.10787686 -0.053364847 -0.092099726 -0.040580824 -0.03270653 -0.049050093 -0.02206541 0.13352934 0.06270085 -0.06557016 -0.09313249 -0.043859802 0.08147755 -0.0050047524 -0.022574302 -0.032247763 -0.052553855 -0.074621536 -0.025501639 0.07036936 -0.000821948 0.08690649 0.057590537 0.03478926 -0.04018069 0.004501478 0.057120435 -0.06627788 0.033277065 0.07117396 0.0860818 -0.039447255 -0.05336179 -0.09503415 0.101593874 -0.067690775 0.023448806 0.122668415 -0.020061798 0.0113174645 -0.09375156 -0.07857155 0.056059737 0.019943055 0.033524465 -0.056361385 0.07384587 -0.067712374 -0.048609786 -0.039440144 -0.08066321 0.011138001 0.13152836 -0.038689874 0.0042483127 -0.034296345 0.031228185 -0.07355392 0.11587608 0.09117416 0.07601528 0.06945119 -0.14659345 -0.06652869 0.1274194 0.1113028 0.036162883 -0.024429971 0.014773197 -0.004384063 -0.057694424 -0.02623426 -0.08866984 -0.10166925 0.08463619 -0.09320436 0.057900783 -0.0039463844 -0.07892475 -0.0535197 -0.107714705 -0.07652776 0.010180664 -0.061228387 -0.06028255 0.09221074 0.10414701 -0.08810856 -0.059054747 0.03681182 0.03260691 0.12197845 0.059099615 0.041021217 0.063899525 -0.061542638 0.03996847 0.047291383 0.045297913 0.043466713 -0.061087906 -0.05159288 -0.08666442 -0.097618155 -0.117999665 -0.0034302159 -0.11365636 0.059296582 0.009933468 -0.033977896 -0.12093227 -0.08283019 -0.08605007 -0.0905087 -0.10657245 -0.07665484 -0.02797921 0.09469369 -0.06674988 -0.019813674 0.0045101196 0.07938194 -0.05207659 -0.047240116 -0.057674844 -0.12426641 -0.07492618 0.04749893 -0.06001049 0.071005136 -0.065381326 -0.027239563 -0.062242147 0.09077899 -0.046927784 0.07727212 -0.052478522 0.06612539 -0.10620713 0.048062567 0.081349656 0.12625167 0.082982235 0.06443305 -0.08515936 0.05687489 0.017379927 -0.07258843 0.117132284 0.07348106 -0.043133464 0.06300956 0.03768152 0.012596925 0.031107286 0.020033706 -0.07083672 -0.049676683 0.10590267 -0.06852553 0.12041939 -0.022496615 0.08368841 0.013346908 -0.036785014 -0.08689984 0.025194975 -0.0778067 -0.059270833 0.051742367 -0.07220636 0.07235647 -0.004779625
that 0.06239415 0.03344862 -0.070645794 -0.063702464 0.016483484 0.07222389 0.039561234 0.080806695 0.082412064 -0.10636191 -0.055447277 -0.11131175 0.058973316 -0.05376538 0.055515196 0.11557959 -0.0988923 0.0891069 -0.051070634 -0.09125297 0.044550013 0.10190876 -0.085469365 -0.018083388 -0.053033385 0.01851526 -0.07584689 0.04809944 -0.08908077 -0.06597921 -0.11985744 -0.015731981 -0.030855443 0.045861166 0.11237644 0.10409043 -0.0061579747 -0.08359137 -0.030208211 0.058352374 -0.037279423 -0.08017424 -0.024778739 -0.08263179 -0.09033787 -0.059325133 0.028474672 -0.042561878 0.074939914 0.08703938 0.025368955 -0.06297205 0.051222045 0.056983806 -0.051810697 0.016569043 0.066966385 0.07182768 -0.07505775 -0.03720102 -0.062794134 0.07211636 -0.03392823 0.037736543 0.05386643 -0.045264196 0.054835934 -0.08674788 -0.058233593 0.07104686 -0.008391073 0.01260409 -0.06551187 0.07472037 -0.006136705 -0.08577324 -0.08291567 -0.04245613 -0.04314175 0.09301103 -0.038825154 -0.005046932 -0.049146015 0.046039652 -0.08298164 0.07608816 0.10124848 0.12956762 0.044029385 -0.1199309 -0.06056234 0.10569636 0.10956425 0.07316956 0.004984086 0.058619976 -0.025225947 -0.114254355 -0.053049553 -0.075465366 -0.10135553 0.08401141 -0.085731305 0.069186 -0.02369734 -0.07059586 -0.07547189 -0.0723307 -0.098397575 -0.03895597 -0.09634949 -0.05567737 0.06025053 0.074125804 -0.09995739 -0.051205683 0.052856896 0.035959393 0.103636585 0.09025179 0.06738122 0.064786546 -0.10940849 0.039447915 0.07240495 0.05840585 0.050535955 -0.046663933 -0.069096886 -0.05534281 -0.054098304 -0.103120066 -0.032342967 -0.15789813 0.052563943 0.054858033 -0.0020217437 -0.1435369 -0.09223515 -0.047762603 -0.10012997 -0.08552192 -0.0849788 -0.051832493 0.09493434 -0.102184676 -0.04850687 0.017217003 0.04131381 -0.05457926 -0.066008195 -0.07339704 -0.07468955 -0.07624533 0.058523927 -0.103698514 0.09271883 -0.039737977 -0.07217379 -0.07154065 0.07483202 -0.06119715 0.062851936 -0.043773238 0.10730698 -0.10389945 0.04731901 0.069437765 0.084203176 0.06437402 0.036873296 -0.07021806 0.05426605 0.03927139 -0.04656677 0.08726633 0.05853929 -0.05758161 0.052814286 0.04869916 0.0251868 0.04633494 0.01482509 -0.08844266 -0.068835706 0.05876241 -0.089191996 0.100710034 -0.11898452 0.07347735 0.034008164 -0.06627259 -0.11251212 0.06721224 -0.019989682 -0.0842681 0.014972437 -0.058903717 0.041175485 -0.03665428
by 0.10097593 0.032188844 -0.092493266 -0.049066916 0.043964393 0.07488552 0.09095556 0.06764809 0.055782985 -0.07848333 -0.08435737 -0.119197674 0.06335728 -0.074509054 0.026173634 0.112399586 -0.028536364 0.07252696 -0.05267335 -0.10119213 0.073083065 0.029599996 -0.12411861 -0.020845158 -0.035461053 0.024541968 -0.107911244 0.07361369 -0.08956188 -0.045557685 -0.09425867 -0.04843818 -0.047253024 0.031398643 0.105078794 0.12880665 -0.00651666 -0.11287711 -0.06414364 0.09087645 -0.006555011 -0.043908376 0.02057211 -0.0810736 -0.079815894 -0.0146556515 0.0414148 -0.06958777 0.11560943 0.10505679 0.052204058 -0.034721736 0.021298757 0.049316388 -0.06961586 0.022021158 0.039735362 0.07340479 -0.0649415 0.0058442187 -0.056305815 0.0721111 -0.052050453 0.015460811 0.07753464 -0.047003005 0.059279572 -0.058961764 -0.04302808 0.034381714 -0.022583224 0.0026189748 -0.099600665 0.024034396 -0.03670074 -0.044606633 -0.06235052 -0.02523107 0.010743455 0.090885416 -0.031984158 -0.0029950843 -0.047562778 0.014443317 -0.0642245 0.15041228 0.10596016 0.11799852 0.05584518 -0.0993642 -0.05508222 0.13294648 0.105017744 0.03283483 -0.02724815 0.046790358 -0.025413927 -0.09315542 -0.068098694 -0.08334797 -0.109490335 0.07909352 -0.06911973 0.053941328 0.0044454755 -0.08302463 -0.037134483 -0.05384049 -0.09142649 -0.03662725 -0.05594231 -0.06619453 0.024735078 0.12464828 -0.096236706 -0.075786695 0.11893475 0.05691428 0.09613775 0.08398528 0.05153376 0.06022115 -0.028093386 0.02197852 0.08590194 0.056119636 0.083505295 -0.037032835 -0.08588352 -0.0679771 -0.01568399 -0.12547389 0.008153004 -0.073729336 0.07054066 0.030932816 -0.034501534 -0.14477088 -0.068554856 -0.07578045 -0.11088707 -0.11076383 -0.04730001 -0.0495714 0.1014348 -0.0769989 -0.03480856 0.06003003 0.09889031 -0.055497665 -0.051451694 -0.072114825 -0.093107104 -0.0660833 0.05041404 -0.06393911 0.09093196 -0.06866443 -0.07754507 -0.06966457 0.06674833 -0.051945694 0.041356053 -0.054480836 0.07305384 -0.106145434 0.021010427 0.11107724 0.05710762 0.09050785 0.040166985 -0.035869535 0.051778417 0.06399227 -0.027498132 0.101276465 0.08431167 -0.043790277 0.040557124 0.11714612 0.033300232 0.046467643 0.01698717 -0.101094134 -0.054614253 0.08173896 -0.124355085 0.10137932 -0.080400445 0.039105855 0.0520206 -0.0652291 -0.08520864 0.053937856 -0.021564478 -0.032102294 -0.0096958615 -0.016535092 0.07023603 -0.06169802
from 0.10628252 0.09047233 -0.084530525 -0.046378504 0.03233549 0.06522646 0.05089853 0.07869843 0.07864292 -0.071825646 -0.106513016 -0.11447375 0.08543503 -0.08999218 0.063411735 0.10943918 -0.021869374 0.07544745 -0.06870064 -0.07301064 0.06642292 0.064738855 -0.17291638 -0.005519962 -0.025729945 0.010901828 -0.058265276 0.06017596 -0.08435133 -0.06605737 -0.09064291 -0.047237676 -0.058860343 -0.0033813277 0.1347852 0.09502983 -0.02170541 -0.089465156 -0.005487543 0.11411657 -0.002389438 -0.04050218 -0.004483499 -0.05578993 -0.053665414 -0.05794007 0.040991183 -0.06671456 0.11628026 0.09913546 0.055175744 -0.04104186 0.032430306 0.067236036 -0.060262427 -0.022758218 0.03860333 0.036873985 -0.0949906 0.012874606 -0.057630427 0.09637938 -0.057188082 0.009477255 0.09351666 -0.06184478 0.046329673 -0.081668876 -0.051733837 0.0202174 -0.0252308 0.049484957 -0.081746496 0.040479936 -0.063045345 -0.034063544 -0.0950566 -0.0924738 0.032604184 0.10868417 -0.05682718 -0.011175296 -0.08331806 0.021628551 -0.08983632 0.13092399 0.09182463 0.07505274 0.0684571 -0.09290407 -0.10904989 0.10119184 0.06554662 0.08376049 -0.025227264 0.040833276 -0.04716785 -0.10164045 -0.038736887 -0.0613307 -0.10538014 0.059427924 -0.057958234 0.05191094 -0.009826789 -0.08863434 -0.063600324 -0.033873737 -0.13096847 -0.05222572 -0.05456766 -0.07712935 0.073076494 0.116533056 -0.099914744 -0.040829003 0.0927426 0.05172428 0.10762702 0.09132441 0.06557818 0.032134466 -0.062203333 0.031362586 0.095414616 0.07126309 0.08583378 -0.014951311 -0.08540961 -0.06118289 -0.040801372 -0.11783627 0.016876416 -0.08389466 0.08297068 0.021276742 -0.048012335 -0.13019855 -0.07652167 -0.06418749 -0.093013585 -0.09428197 -0.06641605 -0.06755842 0.09300197 -0.04353095 -0.02758734 0.034953225 0.110866 -0.049379926 -0.067300335 -0.095029905 -0.08387033 -0.03319506 0.06906867 -0.061665606 0.052480422 -0.046310566 -0.06747759 -0.04175325 0.06417139 -0.027776238 0.07690019 -0.06222593 0.0869438 -0.08931484 0.041644983 0.111769795 0.09210349 0.09976928 0.07543875 -0.06496377 0.029468304 0.075028345 -0.03663565 0.12698951 0.04730007 -0.075562656 0.029104175 0.047805257 0.03354659 0.040104493 0.009762756 -0.08144905 -0.058948312 0.043414395 -0.09869143 0.10533994 -0.034673754 0.022852995 0.009965469 -0.063890405 -0.027782874 0.004701206 -0.037976824 -0.021345938 0.042779252 -0.06804212 0.0330763 -0.0135315135
oper 0.09628108 0.08916982 -0.060809832 -0.077928975 0.048107322 0.043578405 0.077957965 0.096455015 0.049729995 -0.054559566 -0.050453797 -0.11435382 0.05089145 -0.12495416 0.058336157 0.09468569 -0.053425565 0.06882891 -0.107710674 -0.09384611 0.06498697 0.044467885 -0.15716201 -0.031444013 -0.03675006 0.047869854 -0.08930284 0.07211337 -0.06308438 -0.04550958 -0.029518928 0.00911505 -0.08418971 0.031225475 0.091623075 0.099610426 -0.04577341 -0.07912916 -0.08419545 0.09192683 -0.01708049 -0.035057012 -0.0480026 -0.06525492 -0.0933952 -0.06775198 0.077063374 -0.05631427 0.100419246 0.023735326 0.05497593 -0.05383429 0.042118076 0.082208335 -0.08344007 0.04845633 0.039019212 0.058470916 -0.06917416 0.00043344795 -0.08765586 0.07049937 -0.057103798 0.012820457 0.10153275 -0.06564826 0.044815335 -0.08359228 -0.03934274 0.046091557 -0.01591206 0.023609694 -0.05823395 0.042699177 -0.036289796 -0.0281827 -0.041282356 -0.08812526 0.0050533554 0.049808 -0.04504779 0.068337485 -0.015849693 0.031490527 -0.09297033 0.094160564 0.058823716 0.10437899 0.091404065 -0.06350894 -0.0836595 0.08112905 0.07373259 0.07879186 -0.027456952 0.03353373 -0.03251911 -0.13357706 -0.06195003 -0.07347344 -0.08645426 0.05490986 -0.07454236 0.053909797 -0.029416414 -0.05917928 -0.057530984 -0.063789375 -0.110895135 -0.043085698 -0.0600719 -0.061378397 0.023932038 0.116110764 -0.079252176 -0.08462054 0.11304865 0.07533152 0.11290042 0.082472265 0.026439583 0.02869608 -0.065413706 0.01106856 0.054669376 0.019090388 0.10356495 -0.032220032 -0.10160386 -0.046191167 -0.08870747 -0.10978297 0.008626945 -0.06142681 0.06356938 0.013797478 -0.02128819 -0.16340803 -0.05808411 -0.07813623 -0.09507363 -0.05945404 -0.010071831 -0.018327976 0.09666568 -0.087723665 -0.03270811 0.021834554 0.1139063 -0.006411552 -0.07268723 -0.069469124 -0.13027406 -0.07973746 0.041058596 -0.07921081 0.059280053 -0.05389259 -0.061184485 -0.10097104 0.096395954 -0.034461558 0.074451596 -0.07103979 0.04305796 -0.12520647 0.07387728 0.12542993 0.0742533 0.12337528 0.11088275 -0.06094931 0.017252488 0.08445891 -0.035920925 0.07248397 0.0745679 -0.054430187 0.0279973 0.06850812 0.024955796 0.04507885 -0.0108533865 -0.044737384 -0.06612548 0.11090929 -0.07515415 0.09774491 -0.067794934 0.08394508 0.034140814 -0.037148315 -0.08444807 0.024295673 -0.072496064 -0.036350675 0.062016435 -0.07739443 0.021106843 -0.008001499
s 0.07774043 0.08532254 -0.085404925 -0.038944434 0.014579243 0.061170243 0.05417724 0.09170375 0.06249298 -0.04452632 -0.08265789 -0.10523726 0.06071596 -0.06526547 0.056926504 0.10745137 -0.05134508 0.05439653 -0.089384004 -0.07834185 0.046111554 0.054462858 -0.117215924 -0.031399537 -0.044587795 0.014669198 -0.077328555 0.076648206 -0.08147621 -0.08576547 -0.09904112 -0.015817469 -0.062271133 0.0070005464 0.08194099 0.11153007 -0.024739673 -0.09420477 -0.032379415 0.0960266 -0.043454487 -0.058905404 -0.03142395 -0.07733761 -0.06911091 -0.03415967 0.04995925 -0.05369694 0.10023489 0.09390316 0.05625455 -0.024406157 0.046519157 0.07159487 -0.09263631 0.0199461 0.036859456 0.08374255 -0.083978906 -0.027348401 -0.066549405 0.06529455 -0.06982674 0.0024646616 0.09395427 -0.03517108 0.05152567 -0.09194968 -0.07695035 0.040588375 0.007458599 0.029451316 -0.0821102 0.063653335 -0.066158265 -0.046994 -0.072421454 -0.090427704 -0.0059322612 0.0971641 -0.02497155 0.019242236 -0.0655394 0.012329039 -0.07375887 0.10177817 0.08796509 0.11510746 0.09578333 -0.08365623 -0.06961669 0.10966921 0.098479524 0.06903406 -0.022296501 0.031544395 -0.041075263 -0.07414666 -0.05459513 -0.087124005 -0.116105355 0.10268914 -0.060021613 0.061467428 -0.008115584 -0.097597495 -0.056077093 -0.05104132 -0.10324152 -0.02465105 -0.08709132 -0.078482665 0.023874711 0.09723076 -0.108426616 -0.07051643 0.08844423 0.047042184 0.08971057 0.09282575 0.036667965 0.02541199 -0.070661634 0.031198464 0.113897264 0.043731928 0.06969272 -0.039849814 -0.061443873 -0.085573584 -0.049773425 -0.1211942 -0.0019410375 -0.09137092 0.080588825 0.030331088 -0.029348109 -0.13052556 -0.065564 -0.07945209 -0.11764091 -0.09930965 -0.06722115 -0.029237255 0.09187832 -0.07052993 -0.033564996 0.013366735 0.097480625 -0.059749544 -0.08409534 -0.043177996 -0.09188144 -0.0879162 0.052004214 -0.088150874 0.057800878 -0.06794123 -0.07722247 -0.06080997 0.062304232 -0.06753862 0.050437152 -0.06502327 0.079818465 -0.10429802 0.043625735 0.11635456 0.10473631 0.08293376 0.059805818 -0.085776135 0.035457715 0.08175011 -0.031449713 0.11303061 0.066737324 -0.03547843 0.069082215 0.08440159 0.022591447 0.04540362 0.0094372425 -0.0743278 -0.0709311 0.06383411 -0.10021511 0.11172477 -0.07306343 0.06965671 0.027238183 -0.04256003 -0.049770735 0.04744303 -0.056914188 -0.03022235 0.046952665 -0.05166617 0.06560362 -0.024550954
be 0.13335553 0.040653493 -0.08318298 -0.102216035 0.026469907 0.07841271 0.0402445 0.03328395 0.046186198 -0.08858221 -0.025617264 -0.10851353 0.08569029 -0.042017754 0.07471366 0.11881055 -0.068220034 0.05962115 -0.044210516 -0.08026736 0.025745193 0.028497873 -0.11941685 -0.024748703 -0.05220045 -0.013096581 -0.039633814 0.08557703 -0.09216387 -0.08090645 -0.103980124 -0.0090917265 -0.021138402 0.025433155 0.119019456 0.07700835 -0.059401322 -0.08671988 -0.011119497 0.06396769 -0.016895767 -0.03934715 -0.033660606 -0.056748822 -0.09942093 -0.047623865 0.06636536 -0.03127517 0.08349496 0.08552971 0.06152816 -0.041631233 0.03326918 0.04974012 -0.07706141 0.027877651 0.041987617 0.06908622 -0.07130923 -0.04594048 -0.07568294 0.057812843 -0.07745392 -0.01535977 0.08319762 -0.04604702 0.04359266 -0.05359469 -0.044652086 0.025824862 0.004166006 0.0094062425 -0.08430162 0.04574161 -0.018851133 -0.042710986 -0.046891388 -0.0869065 -0.057474617 0.09951856 -0.05357763 -0.0011415046 -0.004162067 0.020443978 -0.10417513 0.08443863 0.08428944 0.092998944 0.044563062 -0.121662416 -0.09847334 0.108704776 0.09049695 0.05431217 -0.0049291155 0.027661955 -0.017529095 -0.09638927 -0.0038684248 -0.06378412 -0.12274494 0.08908064 -0.08360118 0.005871215 -0.0019752244 -0.046774667 -0.07114086 -0.068247244 -0.08378511 0.01045408 -0.09700801 -0.050277036 0.08293314 0.11066349 -0.106665686 -0.056912802 0.06487513 0.04890069 0.10549841 0.06997197 0.016054552 0.05321224 -0.078027554 -0.011246737 0.053752247 0.06406222 0.040700953 -0.053766694 -0.07793166 -0.049322106 -0.049643636 -0.15578975 -0.010334978 -0.12850226 0.04856478 0.015823836 -0.015121847 -0.14997421 -0.07516623 -0.06583927 -0.090882316 -0.070331775 -0.04847149 -0.07039694 0.101867676 -0.08362835 -0.06429316 0.027026031 0.0642546 -0.07014578 -0.044533137 -0.013938269 -0.10825749 -0.07858084 0.048122894 -0.109480076 0.106039636 -0.04233952 -0.07850554 -0.035220724 0.112463415 -0.0024092046 0.07644127 -0.047819667 0.12130276 -0.1159819 0.044915635 0.08478742 0.1088499 0.11395474 0.03243229 -0.054984268 0.054058194 0.07881239 -0.047963075 0.09277724 0.065230764 -0.09603688 0.058943927 0.07864777 -0.0077953953 0.051556874 0.04810398 -0.055394955 -0.08631694 0.064612746 -0.09568457 0.11745459 -0.073008046 0.10285639 0.051373817 -0.09602809 -0.08480137 0.07037653 -0.04238652 -0.029070485 0.075861484 -0.06370502 0.054224964 -0.017344465
includ 0.07122613 0.075640015 -0.121666655 -0.024752755 0.041453682 0.07281065 0.04224878 0.03707649 0.07229488 -0.066513605 -0.090355895 -0.11151934 0.045122664 -0.06934248 0.07761252 0.08788731 -0.07071702 0.078931995 -0.10025097 -0.10210436 0.058627464 0.05934948 -0.10767461 -0.019153265 -0.058038667 -0.0056755524 -0.0937494 0.07756505 -0.060241133 -0.07471523 -0.06293969 -0.04108834 -0.04929885 0.013693155 0.10062144 0.07883606 -0.03190392 -0.093886994 -0.03380668 0.11605341 -0.036377583 -0.03345844 -0.045332123 -0.08357399 -0.058706347 -0.05231474 0.04970681 -0.034768738 0.0867045 0.08304728 0.087131776 -0.048518818 0.030106233 0.072726406 -0.06471612 0.034646556 0.030288704 0.0784293 -0.05607832 -0.029865524 -0.08908548 0.078161485 -0.04715199 -0.014652357 0.1279593 -0.056915686 0.030911142 -0.062907614 -0.075430475 0.03247299 -0.03482452 0.01543055 -0.07055938 0.059182238 -0.1128143 -0.039356593 -0.08319328 -0.08146592 0.057737898 0.09511579 -0.03548 -0.0035709748 -0.08399259 0.046244413 -0.09911851 0.09453772 0.09071661 0.07630128 0.1010751 -0.09401025 -0.058987644 0.1122631 0.0898963 0.052824426 -0.026012553 0.005214231 -0.029582478 -0.11544656 -0.07220963 -0.0718991 -0.086810045 0.07249069 -0.066694506 0.043040417 0.0122682145 -0.079786815 -0.027353125 -0.038157545 -0.118562505 -0.046654835 -0.08905945 -0.08977902 0.0606202 0.069253646 -0.13139348 -0.07211881 0.097976506 0.07109926 0.0640177 0.08135001 0.039631512 0.051665816 -0.0482181 0.06401125 0.080486074 0.03879651 0.05601799 -0.023151163 -0.06440888 -0.097802244 -0.060491994 -0.14297946 -0.002097008 -0.08606382 0.09546469 0.0028509474 -0.03894606 -0.1263974 -0.08827771 -0.055549525 -0.102855705 -0.0853498 -0.04772521 -0.0638663 0.08817789 -0.07262105 -0.017952517 0.036064897 0.10172537 -0.04152611 -0.06321815 -0.05979442 -0.088315785 -0.046557073 0.040489424 -0.08228759 0.07937678 -0.082249895 -0.067834795 -0.09559941 0.06743414 -0.06460827 0.074285746 -0.0409425 0.074150495 -0.094153486 0.08034926 0.10202692 0.09198692 0.06618677 0.068349585 -0.08288611 0.02009533 0.06857944 -0.055180136 0.10899332 0.07633194 -0.028145226 0.058175985 0.04986233 0.035755407 0.06304555 0.017933361 -0.11071107 -0.07658793 0.07381932 -0.07370586 0.097033545 -0.06033376 0.039436787 0.0065633194 -0.062274393 -0.08358848 0.03154151 -0.044826012 -0.060793154 -0.0031912215 -0.042234477 0.08381168 -0.0050855638
it 0.08025429 0.0751312 -0.11891061 -0.06902501 0.04410086 0.052375548 0.060074776 0.06861694 0.05380602 -0.080458276 -0.05759927 -0.09415065 0.068785846 -0.06048841 0.09005334 0.095079884 -0.045983374 0.072076134 -0.07170099 -0.0778106 0.05786234 0.042313743 -0.090381235 -0.044384576 -0.033390388 0.004390822 -0.06776301 0.07832243 -0.11357795 -0.08616568 -0.08364438 -0.010422189 -0.07877567 -0.002866941 0.08527165 0.09493904 -0.039397042 -0.114813894 -0.039329134 0.120818324 -0.028833093 -0.07299248 -0.02833139 -0.07683456 -0.100938305 -0.0401447 0.072160974 -0.039054412 0.08918149 0.078638114 0.09250019 0.0013956993 0.05598474 0.07550109 -0.054530162 0.016015233 0.06837553 0.08502153 -0.09196365 -0.004144953 -0.061382465 0.09979012 -0.044118736 0.016139777 0.08042062 -0.0021313592 0.059804995 -0.09431421 -0.06783016 0.057991292 -0.022555532 0.037134368 -0.08844725 0.07570547 -0.07838816 -0.07054608 -0.089547776 -0.08624989 -0.013832049 0.11224757 -0.032172214 0.009581247 -0.05461794 0.051009208 -0.051861323 0.10792709 0.09188845 0.09781067 0.08006727 -0.08648038 -0.07759095 0.12112407 0.072161764 0.06934533 -0.009887966 0.044050086 -0.03765632 -0.061625663 -0.03044849 -0.10244841 -0.10477973 0.08477367 -0.080263235 0.07501833 -0.04044858 -0.09312912 -0.06475957 -0.05826044 -0.09831442 -0.01113852 -0.06452526 -0.06662577 0.049814608 0.07692812 -0.09575936 -0.051114894 0.0770905 0.034422442 0.08646326 0.08938638 0.034619424 0.06860169 -0.08826616 0.0048557688 0.108009584 0.03649232 0.059670657 -0.065880805 -0.07265697 -0.05654481 -0.06329309 -0.12336964 -0.0020919435 -0.11415705 0.09013023 0.027966859 -0.017177211 -0.1250719 -0.07557499 -0.06510487 -0.092244335 -0.08917026 -0.06957948 -0.0011686019 0.09723065 -0.06541039 -0.047774717 0.012037543 0.05830498 -0.061571054 -0.09008162 -0.032391552 -0.13684347 -0.06394727 0.04435619 -0.06949012 0.07616073 -0.04557989 -0.09146896 -0.067729615 0.08702202 -0.034405623 0.0749681 -0.053966597 0.081851475 -0.10107752 0.030056154 0.11458197 0.10488006 0.08535712 0.034986056 -0.09331214 0.023315433 0.0531813 -0.026353778 0.060109414 0.07087928 -0.05065149 0.0716197 0.05096013 0.021906909 0.05705361 0.021831416 -0.04600001 -0.05352352 0.0653317 -0.10794774 0.09683274 -0.06627547 0.049942598 0.02724669 -0.059270304 -0.064550176 0.052121032 -0.054513022 -0.049298953 0.016316408 -0.0739875 0.0837735 -0.04588191
compani 0.050122797 0.09192946 -0.0879836 -0.06903764 0.0751351 0.06329783 0.066796415 0.06349403 0.07053097 -0.063637935 -0.05996029 -0.06903053 0.042660296 -0.037816115 0.071350746 0.07071821 -0.033755228 0.05651144 -0.074405804 -0.07481928 0.0801823 0.015683638 -0.10298517 -0.032873344 -0.054037593 0.011760881 -0.060227692 0.09831879 -0.09740008 -0.10848273 -0.07753627 -0.03735218 -0.055399872 0.00835167 0.08938242 0.120558664 -0.053729422 -0.11400777 -0.047784727 0.1462719 -0.036966998 -0.049220596 -0.029020512 -0.07300576 -0.07629692 -0.032635286 0.06761472 -0.050407484 0.09099253 0.10303944 0.039051775 -0.04539526 0.029091084 0.058458854 -0.07554164 0.021431617 0.05915513 0.082999945 -0.09685811 -0.020498624 -0.09415431 0.056340814 -0.036721956 0.029597053 0.053098742 -0.038094394 0.030861141 -0.09008177 -0.08058394 0.06517727 -0.035882045 0.004400926 -0.055825632 0.08092704 -0.05828474 -0.028856685 -0.08272095 -0.09719424 -0.017206406 0.10454921 -0.031030554 -0.013646553 -0.067343734 0.033828005 -0.06101385 0.0835527 0.07038458 0.12928191 0.07012906 -0.072319545 -0.079422496 0.11827669 0.07172579 0.07852179 -0.0026832526 0.051084686 -0.052800998 -0.036124475 -0.062175002 -0.08896111 -0.12527056 0.07441354 -0.070250176 0.10913178 -0.00621787 -0.085238434 -0.069274746 -0.04660134 -0.09984922 -0.026905814 -0.03877209 -0.09328067 0.030963581 0.10351622 -0.0856508 -0.09005173 0.11149601 0.041579038 0.070761845 0.084471375 0.047718547 0.031604994 -0.11734333 0.010270202 0.097242534 0.042425368 0.038923588 -0.064557835 -0.056318577 -0.0936763 -0.061974067 -0.13577276 0.028214296 -0.0985605 0.054689378 0.03625138 -0.027804365 -0.11485374 -0.07896055 -0.08345123 -0.08503871 -0.071133606 -0.0544248 -0.021006677 0.07754175 -0.055709876 -0.046850555 0.033930186 0.08046438 -0.08324724 -0.051453494 -0.05228929 -0.10354235 -0.08292288 0.024247285 -0.08233768 0.07585905 -0.042109013 -0.0650869 -0.052248374 0.08791023 -0.046063207 0.08023975 -0.04567197 0.057049025 -0.10995482 0.06443647 0.12826793 0.089016184 0.06730373 0.023169002 -0.094927125 0.040287443 0.070149176 -0.06206794 0.08598531 0.10014533 -0.030277567 0.06191934 0.0882526 0.037513822 0.04581854 0.022826191 -0.066554 -0.059213392 0.10531976 -0.11270768 0.12535818 -0.08367137 0.054158203 0.055008054 -0.047782306 -0.049444076 0.052875094 -0.021871496 -0.047853965 0.02849529 -0.09042784 0.044880036 0.015568723
at 0.10804453 0.10968024 -0.10291224 -0.052510124 0.043065146 0.098906256 0.0637898 0.075016394 0.07498138 -0.07246298 -0.07288952 -0.10652969 0.037206523 -0.081322536 0.040429972 0.13460901 -0.055348445 0.08179952 -0.08771548 -0.077643715 0.040508483 0.05234438 -0.10797136 -0.027985431 -0.036386855 0.011535672 -0.10009073 0.08413779 -0.0794921 -0.1115397 -0.090994276 -0.022798866 -0.06586817 0.0023301882 0.10230366 0.09530827 -0.023362422 -0.10076142 -0.060592353 0.090855554 -0.026302502 -0.0707733 -0.009616477 -0.06559347 -0.09312127 -0.037470065 0.05001515 -0.0221119 0.11512422 0.10208273 0.09817382 -0.030563997 0.029595207 0.055634666 -0.08771468 0.046265263 0.03896249 0.04353347 -0.13105966 -0.015820334 -0.041088525 0.080518655 -0.06766507 0.018642528 0.08068932 -0.04551739 0.068214625 -0.072551474 -0.08984562 0.03818355 -0.054353856 0.008980185 -0.09083367 0.03245786 -0.056472037 -0.03150978 -0.062566355 -0.076354444 -0.04349004 0.09409529 -0.041864906 -0.0016316224 -0.063604146 0.0023053715 -0.05736625 0.12297465 0.09928503 0.0822035 0.042299964 -0.07940735 -0.101614684 0.07686758 0.0877999 0.054982822 -0.048757184 0.06117684 -0.037657086 -0.08524799 -0.04967839 -0.05334374 -0.108099766 0.08154683 -0.051555283 0.055970237 -0.0019455947 -0.077536814 -0.02960861 -0.044424526 -0.13503423 -0.005822113 -0.031161895 -0.107511126 0.049396504 0.08811204 -0.11190401 -0.100741595 0.08415557 0.044775482 0.07709662 0.070668645 0.046754133 0.024702415 -0.0672079 0.050127584 0.08866267 0.064479694 0.06332138 -0.013722411 -0.08749361 -0.1069316 -0.047064416 -0.12780766 -0.02846236 -0.12441332 0.077113256 0.051741503 -0.019873805 -0.09753764 -0.086716525 -0.0736922 -0.08609111 -0.07786005 -0.041306704 -0.015285164 0.07180806 -0.08074769 -0.064042516 0.02005075 0.08733872 -0.043963574 -0.05783773 -0.07484005 -0.09434285 -0.03570649 0.0449083 -0.073884174 0.09142543 -0.03779853 -0.096202075 -0.043824017 0.07793981 -0.010087171 0.06483619 -0.028382843 0.09592748 -0.07719173 0.048727505 0.12075376 0.07001824 0.07199224 0.074455954 -0.06462817 0.043042693 0.04401468 -0.057952676 0.07227401 0.101534285 -0.08458872 0.023132667 0.033988055 0.0074595357 0.07806824 -0.0074387942 -0.05550288 -0.08679205 0.09212379 -0.088329755 0.12064259 -0.067896515 0.047692716 0.040281147 -0.013357378 -0.074824795 0.042524204 -0.026348382 -0.051841933 0.036055975 -0.06619318 0.05364173 -0.0011495322
which 0.08593262 0.04355679 -0.05047964 -0.08999561 0.016842766 0.08476341 0.06104978 0.07754461 0.08221186 -0.07561457 -0.04294725 -0.103938654 0.047135904 -0.08065963 0.047150187 0.14599867 -0.08048017 0.08993547 -0.07697923 -0.075790726 0.066644944 0.039798047 -0.11932282 -0.039055828 -0.053674553 0.010992408 -0.09580453 0.079483725 -0.082111515 -0.05145179 -0.0906276 -0.019026957 -0.038305122 0.009023435 0.110829696 0.10167495 -0.04770778 -0.070717074 -0.03195798 0.10698228 -0.05175911 -0.077889726 -0.012652585 -0.098062225 -0.10646038 -0.076392256 0.04463415 -0.03695473 0.10430685 0.08995312 0.02921102 -0.04938017 0.05181929 0.08139623 -0.06282702 -0.016964082 0.07397396 0.069527455 -0.08545263 -0.013218747 -0.05981202 0.044134334 -0.045797806 0.0062094703 0.08192183 -0.03349744 0.061676763 -0.09739982 -0.07233187 0.06129655 -0.0128339 0.032923788 -0.05516 0.059256084 -0.057880897 -0.060277026 -0.09154096 -0.044809807 -0.019942576 0.11192094 -0.05452276 -0.004780786 -0.05483539 0.00737996 -0.09289761 0.09751873 0.10855704 0.112469174 0.050822712 -0.09941522 -0.049945563 0.1253454 0.090345986 0.04045525 -0.0185458 0.05630697 -0.052634366 -0.10719636 -0.042321377 -0.070820004 -0.117490984 0.07608138 -0.096680395 0.06907889 -0.006158701 -0.06589836 -0.0802875 -0.051682964 -0.11083756 -0.034838308 -0.06750967 -0.045721266 0.062276248 0.1110887 -0.10597088 -0.06518886 0.071928404 0.033136632 0.100936726 0.088802904 0.07091997 0.046736747 -0.05459317 0.040293638 0.09532749 0.061275385 0.09309381 -0.06250372 -0.06335129 -0.07526269 -0.044257987 -0.07314563 -0.012440041 -0.11090378 0.06364039 0.02071788 0.004282159 -0.12599242 -0.09221703 -0.05301612 -0.09867161 -0.07051245 -0.05012228 -0.051526513 0.07909404 -0.06529769 -0.031711612 0.013888787 0.0721108 -0.077022016 -0.07197475 -0.068599924 -0.10199909 -0.049577568 0.01665688 -0.12280716 0.08410953 -0.04351109 -0.096835986 -0.078390725 0.07808291 -0.04061583 0.06271319 -0.06240348 0.07235661 -0.13701865 0.019750807 0.1279798 0.07250127 0.088222936 0.059438795 -0.052943725 0.04142399 0.07948661 -0.046534874 0.09370793 0.06742521 -0.024299046 0.0388464 0.05533645 0.0031101687 0.045881514 0.0043096915 -0.06511637 -0.078250006 0.07545995 -0.08172861 0.10372188 -0.0644191 0.034010325 0.047202393 -0.057789158 -0.086648226 0.05175384 -0.014375529 -0.046017233 0.043036412 -0.04643707 0.016510407 -0.008846264
other 0.06627366 0.05348198 -0.08481387 -0.016330963 0.04952766 0.04986422 0.029827805 0.06766819 0.050310217 -0.070922635 -0.10042066 -0.098289 0.08875189 -0.08299084 0.072293185 0.09994524 -0.040255457 0.07093299 -0.036410656 -0.10778463 0.07062038 0.09284162 -0.13912728 -0.051588517 0.002207959 0.036862265 -0.0613661 0.07638028 -0.06979628 -0.055006076 -0.053805966 -0.03312643 -0.04580211 0.029853791 0.12879175 0.077142656 -0.02137371 -0.09771113 -0.037227187 0.0887191 -0.022157043 -0.02022509 -0.049975757 -0.06779912 -0.06685713 -0.022726517 0.057106916 -0.05262809 0.101097524 0.093888864 0.068995744 -0.041761495 0.019370243 0.07547337 -0.08101302 0.021760266 0.038515963 0.09177255 -0.05712401 -0.020447789 -0.07439698 0.060251124 -0.047250796 0.020254921 0.11367386 -0.06284329 0.046923555 -0.051531006 -0.07294473 0.04910139 -0.0064390404 0.05176669 -0.075965896 0.074660346 -0.055077683 -0.05270164 -0.06650542 -0.065030366 0.023284031 0.07480411 -0.024066446 0.015919441 -0.046780314 0.049837343 -0.07467945 0.10522871 0.09258213 0.07813663 0.08485905 -0.11457761 -0.07535154 0.117527984 0.1205295 0.061244052 -0.011642658 0.017511338 -0.059876863 -0.122556515 -0.047540594 -0.08179248 -0.06540929 0.065836035 -0.069728985 0.04931805 -0.010939537 -0.09283882 -0.037360612 -0.049891528 -0.11426483 -0.03369113 -0.071424395 -0.035869118 0.06395038 0.07887094 -0.115742154 -0.04209213 0.09012679 0.04938791 0.10665786 0.058296226 0.034073636 0.076768026 -0.060116608 0.076707266 0.07721274 0.036391642 0.07131188 -0.045920316 -0.06087176 -0.11703437 -0.06801354 -0.11509819 -0.03451605 -0.062369876 0.086476065 0.02890155 0.003847354 -0.14366803 -0.08174692 -0.03894196 -0.06947264 -0.10829316 -0.019858219 -0.029218683 0.08769241 -0.06427519 -0.0414854 0.033474207 0.10341861 -0.07575269 -0.074726164 -0.048504062 -0.083130516 -0.03697719 0.039599262 -0.05547113 0.10326083 -0.07002659 -0.096295334 -0.077987015 0.115761034 -0.050224684 0.025403382 -0.051736876 0.07950386 -0.11400576 0.08555533 0.10447676 0.10825598 0.09819827 0.10705279 -0.10137144 0.019796714 0.033636965 -0.04814031 0.106987394 0.08384242 -0.054050714 0.07834176 0.054247536 0.0357136 0.084070094 -0.008011566 -0.10299327 -0.10322239 0.05470515 -0.07086455 0.116731 -0.05533406 0.051779028 0.018855868 -0.046794225 -0.07873582 0.03230479 -0.07024551 -0.040836744 0.013084385 -0.072744176 0.048314773 -0.0019741545
have 0.10513115 0.019679988 -0.051060982 -0.056912296 0.014899253 0.1042001 0.052228507 0.038364988 0.07073819 -0.054901157 -0.05740861 -0.13033386 0.058882885 -0.083449975 0.055587813 0.09188427 -0.08485777 0.054190204 -0.09605674 -0.085194945 0.0598147 0.0197654 -0.11812719 -0.07291894 -0.07293055 0.0036309448 -0.08154692 0.11351312 -0.054060567 -0.03883233 -0.097321875 0.0011647363 -0.009387822 0.014085938 0.101931915 0.080271445 -0.080290906 -0.05682528 -0.06710816 0.10806435 -0.0069957078 -0.05240413 -0.041507803 -0.07573194 -0.076078884 -0.017087433 0.093791015 -0.009986643 0.0558133 0.079667255 0.052154418 -0.022351777 0.058946896 0.079647385 -0.042836744 -0.021958351 0.04841398 0.09161785 -0.06892001 -0.016930884 -0.09172023 0.08863192 -0.04555693 -0.0060022566 0.09702707 -0.050252188 0.09178022 -0.070588596 -0.060109854 0.038657974 -0.0355225 -0.017465267 -0.07492039 0.05826169 -0.06494782 -0.010232546 -0.048573602 -0.062467016 -0.040251195 0.098185696 -0.094921365 0.00937086 -0.0735729 0.009234829 -0.08421713 0.08514431 0.0860955 0.10418889 0.08547872 -0.09762154 -0.088992365 0.08137574 0.0758364 0.025668077 -0.018653335 0.029943364 -0.023034723 -0.09152879 -0.010324516 -0.10541642 -0.092644505 0.059401434 -0.085520655 0.049957044 -0.016643582 -0.08682815 -0.07384184 -0.10572618 -0.09450148 -0.017949002 -0.07198649 -0.084964514 0.061716333 0.08715107 -0.15074064 -0.07354723 0.061297894 0.058508094 0.08990608 0.1117123 0.07954769 0.07439925 -0.09631706 0.049189035 0.06048856 0.020495495 0.038956355 -0.041494336 -0.08782141 -0.096293755 -0.06163704 -0.09530039 -0.03785888 -0.11541213 0.06002936 0.07931941 -0.0030148525 -0.11697368 -0.0726323 -0.022297146 -0.07186768 -0.07159831 -0.07127358 -0.04879252 0.11193356 -0.04616953 -0.04562102 0.011880372 0.10294088 -0.08831521 -0.061939403 -0.064068146 -0.08155462 -0.03792343 0.03902356 -0.07828426 0.09227954 -0.06377329 -0.078099884 -0.074727654 0.052295476 -0.0033664368 0.073830225 -0.07508141 0.09299418 -0.108621955 0.06420286 0.09318082 0.11564084 0.065883875 0.06786623 -0.07018093 0.03977473 0.041485768 -0.06629314 0.101588346 0.07480348 -0.04993344 0.038623855 0.09404137 0.017770095 0.039160818 0.025756778 -0.08083652 -0.090554334 0.058520656 -0.069115065 0.08814099 -0.107490964 0.08810209 0.017270125 -0.08028087 -0.068993814 0.05978364 -0.053972285 -0.042224623 0.064682044 -0.03891895 0.044583347 -0.014692822
product 0.091021836 0.09356133 -0.08637359 -0.037396632 0.025513435 0.07254879 0.039246917 0.07328328 0.083426066 -0.052929938 -0.09164669 -0.129032 0.08142179 -0.0663746 0.0592136 0.09495773 -0.040683173 0.057597663 -0.08973042 -0.10347182 0.06745492 0.059037346 -0.091848955 -0.0031587642 -0.035722803 -0.0064747273 -0.08654702 0.052589316 -0.08891369 -0.06673759 -0.0794592 -0.05051981 -0.05017345 0.047958586 0.104926296 0.075651124 -0.039403215 -0.072593346 -0.037915207 0.07724811 -0.007508168 -0.06578823 -0.023421936 -0.071191736 -0.100680366 -0.0625659 0.05818591 -0.058402047 0.07899594 0.067283474 0.06451277 -0.062177792 0.04490666 0.06524841 -0.10891816 -0.0037759303 0.037969314 0.098849475 -0.08881439 -0.0106293885 -0.0961515 0.09437321 -0.03801367 0.021040864 0.10784387 -0.04660474 0.020687545 -0.08034242 -0.074658886 0.06574184 -0.023737065 0.033715863 -0.07282665 0.07385415 -0.07994176 -0.044679243 -0.06635112 -0.10776495 -0.019839164 0.11105507 -0.047157563 -0.0095555885 -0.057808615 0.04400637 -0.06517189 0.07715452 0.07406811 0.08578474 0.04251015 -0.11512396 -0.07124518 0.10588123 0.09243036 0.0679723 -0.02666117 0.027631992 -0.037085626 -0.0927937 -0.07837315 -0.07790919 -0.08171737 0.092882454 -0.080139905 0.061409656 0.010890708 -0.07098494 -0.06665427 -0.0678262 -0.11949958 -0.042002525 -0.05314697 -0.050773982 0.02524769 0.065233886 -0.08830374 -0.07462334 0.07100052 0.050002266 0.08805988 0.086184785 0.030926613 0.07182651 -0.077929415 0.028799554 0.08960954 0.08090888 0.06377257 -0.034889005 -0.06637687 -0.04741176 -0.06738864 -0.08383133 0.015871834 -0.075898655 0.07389963 0.051830657 -0.019198358 -0.09469589 -0.075027384 -0.08073507 -0.07658909 -0.1161353 -0.024361666 -0.027353836 0.10149715 -0.06311431 -0.03257455 0.02581487 0.07199309 -0.057072125 -0.079075314 -0.08520622 -0.12271105 -0.04690354 0.040596094 -0.10803098 0.08665005 -0.08178439 -0.0932559 -0.055297654 0.08987121 -0.047528803 0.07752063 -0.030778069 0.063638665 -0.10003781 0.052609365 0.10393136 0.09158487 0.11497969 0.092633665 -0.07926985 0.0518226 0.107857615 -0.05487573 0.077082045 0.07652421 -0.08225379 0.06542865 0.06890364 0.055708177 0.074146904 0.033484317 -0.099989064 -0.073089465 0.06811196 -0.07303196 0.08494733 -0.067073315 0.07638549 -0.007393138 -0.026340248 -0.07289328 0.05937587 -0.04019336 -0.055383906 0.06370062 -0.05999367 0.03275942 -0.046025448
an 0.07199664 0.06640718 -0.06261111 -0.07036961 0.03860209 0.051691495 0.04467898 0.088725425 0.057361487 -0.08111737 -0.06883801 -0.1001798 0.038767565 -0.0754697 0.069347 0.08600954 -0.04910946 0.07150852 -0.08065268 -0.050499592 0.04285888 0.021686967 -0.13072155 -0.03957523 -0.054317493 0.030463146 -0.067519486 0.096577615 -0.079950996 -0.04166141 -0.11585042 -0.004202913 -0.04257031 0.007630852 0.06629999 0.09569355 -0.045951758 -0.053068712 -0.0286335 0.112005755 -0.039734807 -0.07092226 -0.034598004 -0.109679475 -0.110730164 -0.061768427 0.074909374 -0.047848966 0.11676325 0.048269976 0.100366645 -0.018943029 0.0061524194 0.052765302 -0.07926741 -0.009924201 0.04159298 0.09734711 -0.076454625 -0.06582651 -0.08874663 0.08419886 -0.053715307 0.06540328 0.09596679 -0.022861473 0.050881334 -0.07960744 -0.057567008 0.058919124 -0.039528612 -0.005415821 -0.046829246 0.07462198 -0.050987113 -0.053928684 -0.05874003 -0.077590905 -0.016234571 0.10456487 -0.010947405 0.04889718 -0.071040735 0.03497764 -0.05672279 0.104148224 0.0678473 0.09978097 0.08161652 -0.12456151 -0.06958336 0.08355671 0.08538824 0.06230514 -0.016211094 0.06236745 -0.062252 -0.09583997 -0.050840415 -0.11708897 -0.13216883 0.07764174 -0.07785479 0.058540497 0.002002625 -0.1144475 -0.056350186 -0.07598409 -0.08744625 -0.037259124 -0.06866994 -0.062833734 0.04759937 0.09617454 -0.12192272 -0.049449556 0.09741817 0.04958567 0.073190525 0.10993422 0.008046911 0.06246252 -0.04580061 0.00930689 0.0895587 0.042766694 0.07527516 -0.020840146 -0.04710929 -0.07143386 -0.03324947 -0.13215314 0.008615358 -0.101970226 0.09285152 0.056857444 -0.034663312 -0.09621677 -0.08686617 -0.05275294 -0.105174474 -0.06323229 -0.046950784 -0.03668097 0.10804188 -0.0771213 -0.051976796 0.06734688 0.07460832 -0.033181947 -0.07194073 -0.050866876 -0.101974934 -0.08088347 0.069366336 -0.06552469 0.08502983 -0.05672293 -0.06085892 -0.088957705 0.10780923 -0.0555553 0.059073225 -0.049634084 0.10798045 -0.100631654 0.02836373 0.09600608 0.09018228 0.06611524 0.051371228 -0.056156732 0.058892414 0.055768784 -0.051109668 0.11618018 0.09116685 -0.017862478 0.055026293 0.06687368 0.028559115 0.0508376 -0.017485457 -0.09134421 -0.08061135 0.046227712 -0.099780686 0.08800655 -0.06758224 0.047214136 0.03943985 -0.048760723 -0.0715824 0.08198108 -0.01731245 -0.052496824 0.038694914 -0.078526095 0.03894084 -0.045033284
busi 0.07900589 0.069917604 -0.050998878 -0.0671866 0.023867212 0.047159187 0.048422713 0.07355315 0.037058618 -0.08233116 -0.064926185 -0.120479435 0.06808944 -0.09656405 0.076949745 0.09856264 -0.036962174 0.08159437 -0.102461986 -0.12296555 0.05061159 0.024274984 -0.100595266 -0.04858025 -0.056217037 0.027704714 -0.0962325 0.08801624 -0.07598789 -0.034143258 -0.055325277 -0.017121008 -0.07944068 0.033787657 0.087070145 0.07944944 -0.050855666 -0.08430683 -0.07079228 0.09967824 -0.011265421 -0.02721572 -0.051009767 -0.08580034 -0.13098468 -0.08270967 0.07215451 -0.042911384 0.09701727 0.036962334 0.06153479 -0.008433827 0.07108786 0.09473674 -0.073115826 0.009485374 0.019370187 0.08809969 -0.063471414 -0.02184513 -0.057383012 0.04650272 -0.06267016 -0.005117272 0.08858176 -0.033537537 0.052691255 -0.08941671 -0.06303119 0.03403792 -0.03291245 0.038435597 -0.055799153 0.064081624 -0.05353442 -0.04341609 -0.07518019 -0.098483294 0.013805738 0.08837943 -0.060678743 0.036904704 -0.03916066 0.044038534 -0.073793314 0.08256874 0.073038906 0.10656014 0.08782516 -0.10437897 -0.08075174 0.09362313 0.09519912 0.07180159 -0.033170857 0.063638136 -0.027262505 -0.12262233 -0.05877195 -0.09213736 -0.08474672 0.0634738 -0.084403284 0.056933343 -0.027993532 -0.113653 -0.06461853 -0.046228394 -0.09532583 -0.04002642 -0.086261205 -0.046708975 0.047301725 0.0848103 -0.08527105 -0.09260896 0.090134576 0.06494112 0.11241009 0.06638502 0.06466021 0.039388143 -0.07848496 0.031706754 0.061917916 0.044174068 0.055665538 -0.045248553 -0.08745069 -0.026001062 -0.07094633 -0.07866688 -0.019368567 -0.07530563 0.070245594 0.07363878 0.0062613455 -0.12994096 -0.083749965 -0.05448558 -0.07135757 -0.07949204 -0.033389844 -0.049798157 0.06326869 -0.089627266 -0.03847026 0.033457678 0.1034645 -0.062609755 -0.09111267 -0.06408355 -0.10906021 -0.039314516 0.037690602 -0.099022456 0.06430658 -0.036949906 -0.08484195 -0.102129966 0.08402073 -0.03827095 0.076504916 -0.073790684 0.04641785 -0.097307146 0.05189739 0.13403237 0.117526025 0.07801783 0.08719075 -0.08162876 0.06280713 0.08313119 -0.04156702 0.09959024 0.06827209 -0.056313384 0.07730011 0.068195276 0.04205807 0.052672934 0.007015368 -0.095161125 -0.041709244 0.07383679 -0.05178604 0.09782294 -0.07862421 0.100872844 0.026338445 -0.030165318 -0.076177366 0.039982803 -0.06804679 -0.035278752 0.057254143 -0.06758889 0.035353024 -0.025000732
report 0.09358502 0.08032311 -0.058308564 -0.02604447 0.030304922 0.064614885 0.042399444 0.09747318 0.08656434 -0.0710747 -0.097378924 -0.074092954 0.033707798 -0.07111149 0.08602463 0.08226414 -0.066657685 0.06398029 -0.1036502 -0.11476492 0.04934503 0.018008372 -0.11277683 -0.06830808 -0.044225562 0.02507207 -0.066453435 0.09356322 -0.10681071 -0.088881426 -0.06491681 -0.04685901 -0.038330324 0.023747765 0.10186834 0.060582425 -0.06378692 -0.086630404 -0.019852247 0.0717541 -0.010958089 -0.012607611 -0.013803876 -0.072324015 -0.09297735 -0.03078188 0.054263167 -0.04727278 0.090812996 0.063646026 0.09333337 0.0058741844 0.0515806 0.09306046 -0.07035794 0.0023537085 0.04271201 0.09648601 -0.04116701 -0.02003608 -0.06786489 0.05257981 -0.052525852 -0.004260579 0.06868592 -0.048002627 0.042884775 -0.11180525 -0.042058196 0.0821063 0.005583029 0.0012639231 -0.05562777 0.03993009 -0.07044588 -0.038167898 -0.048697278 -0.07746132 -0.005810863 0.100872345 -0.05956204 0.02328167 -0.067870334 0.044320054 -0.092413366 0.10495306 0.0917541 0.08293254 0.083110385 -0.09610564 -0.0694865 0.07658337 0.085492514 0.09629174 -0.0037969344 0.052325867 -0.008589283 -0.076047845 -0.075121745 -0.10169671 -0.11218308 0.10493575 -0.041772466 0.11756601 -0.005323098 -0.09262264 -0.05072019 -0.038826246 -0.09966209 -0.027185 -0.0878716 -0.0778278 0.037570305 0.09413704 -0.0817633 -0.066163555 0.13408217 0.034385655 0.13636672 0.06602244 0.034441844 0.04304127 -0.06704832 0.024793835 0.098906316 0.034459393 0.062826045 -0.021673346 -0.060557872 -0.088264845 -0.040491898 -0.119394064 -0.008143421 -0.10495102 0.082971975 0.027763996 0.0042028786 -0.13153446 -0.056518007 -0.064381026 -0.09473429 -0.08174801 -0.06649571 -0.060374122 0.05932866 -0.08614121 -0.05615516 0.004377142 0.116295196 -0.0715271 -0.11037767 -0.07348943 -0.06526754 -0.05616687 0.033110756 -0.089948714 0.09660467 -0.07500057 -0.048141122 -0.071872644 0.104953796 -0.037161935 0.04472144 -0.021373961 0.08068288 -0.12807317 0.045699243 0.12313205 0.10407732 0.032885272 0.042593192 -0.10483404 0.025390187 0.026648557 -0.040002786 0.10079667 0.07171008 -0.012749683 0.05632104 0.06407931 0.020276906 0.044830494 0.02715054 -0.038026802 -0.07991467 0.05692232 -0.11686349 0.1188103 -0.072895415 0.09351957 0.052363563 -0.04575684 -0.0721096 0.050400067 -0.054527767 -0.036541607 0.0673475 -0.029245758 0.045493346 -0.04370886
million 0.104651414 0.09747352 -0.11263933 -0.07221857 0.007869543 0.09909672 0.037437532 0.091513775 0.09428512 -0.058301866 -0.046952825 -0.062704735 0.05086146 -0.091769665 0.07653451 0.10963253 -0.0034332501 0.0856047 -0.08149564 -0.039343372 0.050293688 0.038500674 -0.12552707 -0.040070627 0.013509 0.010219867 -0.08394054 0.08381027 -0.03566157 -0.08438608 -0.061490905 0.0030427077 -0.05616102 0.012189738 0.09409796 0.09837571 -0.07371742 -0.06132291 -0.037367318 0.12374499 -0.01102472 -0.046229806 -0.04721383 -0.05866847 -0.088791505 -0.051868144 0.050207563 -0.05773971 0.12863302 0.11693645 0.0932382 -0.024902716 0.024681443 0.108687915 -0.08106441 0.0006883888 0.040192515 0.10674757 -0.098425604 -0.0085386 -0.109577864 0.082351364 -0.062704645 0.010921879 0.101445034 -0.044777703 0.029108517 -0.116822876 -0.07874866 0.05827802 -0.0203776 0.05425404 -0.03419642 0.06964312 -0.07670677 -0.042929508 -0.0920144 -0.09528 -0.019166226 0.09214868 -0.057527743 0.012989839 -0.093991615 0.006724443 -0.08792827 0.09496186 0.05801053 0.10274454 0.06777844 -0.09024905 -0.09016598 0.09951031 0.06886267 0.05553606 -0.044561077 0.057736047 -0.022989957 -0.08239154 -0.05860213 -0.11057929 -0.100541584 0.057978492 -0.071513884 0.069742754 -0.010051235 -0.05586807 -0.039890017 -0.062812224 -0.0944397 -0.015856924 -0.034277886 -0.094652824 0.014228767 0.06262127 -0.082642935 -0.055849347 0.10943161 0.06025973 0.096749805 0.11177118 0.040483713 0.054897003 -0.0143467495 0.02120218 0.12793012 0.07914424 0.0711148 -0.0068749846 -0.04332954 -0.076650746 -0.014145526 -0.14445177 0.0024869028 -0.086539365 0.05244221 0.012065219 -0.0029815284 -0.08646886 -0.06421619 -0.033320412 -0.10383807 -0.077515006 -0.0484533 -0.01835765 0.09259783 -0.12153532 -0.006927004 0.04590048 0.07688193 -0.05753164 -0.07547729 -0.06942427 -0.13982393 -0.07158313 0.05115828 -0.09577898 0.04890786 -0.09596076 -0.08932802 -0.03721739 0.058699116 -0.013938854 0.046751574 -0.036602475 0.07410028 -0.10170033 0.039186984 0.14131981 0.06262693 0.096301034 0.062338904 -0.08678746 -0.004840325 0.07543753 -0.060035437 0.10114382 0.049234066 -0.01604628 0.033135485 0.05601642 0.008185693 0.052938387 0.011681072 -0.041493554 -0.08233452 0.057689156 -0.101626724 0.11909927 -0.028289111 0.07835706 0.009141101 -0.024690278 -0.043619785 0.045443717 -0.03893837 -0.010818785 0.02835354 -0.059093483 0.04316506 -0.026164018
financi 0.07919615 0.06569546 -0.058973704 -0.025974821 0.017225662 0.04337461 0.0639051 0.083444156 0.05854744 -0.09021832 -0.08935026 -0.091992624 0.027394174 -0.079482295 0.087912254 0.11242427 -0.050109256 0.055537328 -0.09775726 -0.10324005 0.07003052 0.06008752 -0.11963392 -0.028857324 -0.06239999 0.035652 -0.10671941 0.09550019 -0.058832817 -0.042274762 -0.06605129 -0.038727783 -0.07420126 -0.0130304415 0.07627548 0.082510605 -0.07459417 -0.088362455 -0.040317293 0.07812038 -0.028668424 -0.026870035 -0.03678859 -0.0793762 -0.113032825 -0.06093993 0.09087731 -0.06709356 0.0718119 0.044775255 0.071073525 -0.012726808 0.047590528 0.08110346 -0.05000904 0.03023149 0.04002166 0.06160758 -0.050573245 -0.047039054 -0.07584359 0.067065105 -0.06800847 0.019332044 0.097956665 -0.016393911 0.04975873 -0.118918695 -0.030572103 0.05981695 -0.019082805 0.008865611 -0.08593986 0.06343775 -0.05538835 -0.042853583 -0.0770067 -0.08788081 -0.01797226 0.071025126 -0.04857877 0.017691035 -0.07185473 0.030349761 -0.07475429 0.10766421 0.07007377 0.089749396 0.10904299 -0.084861755 -0.039689217 0.09378747 0.09135916 0.07969212 -0.031247694 0.040189296 -0.027175909 -0.08780939 -0.045437176 -0.07895485 -0.098023966 0.052457172 -0.049268924 0.06861466 -0.046378132 -0.07379685 -0.068923496 -0.036836408 -0.09794435 -0.012461438 -0.07395642 -0.08851517 0.03820712 0.060155362 -0.07377715 -0.113170445 0.083905436 0.056221627 0.16396058 0.0694937 0.03832804 0.029364526 -0.095957704 0.06095546 0.0783641 0.062114697 0.09816185 -0.040150903 -0.06722717 -0.06093926 -0.09376186 -0.101719745 -0.011582293 -0.078394495 0.06432152 0.032288194 0.012568409 -0.0969602 -0.08261002 -0.032103278 -0.09805874 -0.08457661 -0.051356282 -0.05797796 0.11983597 -0.08623403 -0.02343875 0.00651696 0.07100382 -0.07931546 -0.08789981 -0.057380475 -0.11549878 -0.06179367 0.018711036 -0.12983166 0.05546062 -0.05108366 -0.044947546 -0.104527324 0.089832224 -0.0102205165 0.05310597 -0.07746605 0.092385426 -0.09807694 0.05466952 0.11021447 0.115495265 0.062311232 0.109408654 -0.09773809 0.054805472 0.08629405 -0.026820099 0.10647514 0.0675512 -0.04385066 0.04425046 0.060743872 0.017018804 0.028915446 -0.0015456617 -0.08952274 -0.047936417 0.06427967 -0.10454337 0.103435755 -0.051346242 0.11671277 0.020856591 -0.028053053 -0.072653204 0.042432483 -0.061016746 -0.03787217 0.03712196 -0.07049522 0.036846027 0.014709091
not 0.071841896 0.062454965 -0.13366434 -0.08652235 0.025846882 0.06299866 0.010320313 0.08917348 0.06086649 -0.09147578 -0.06815767 -0.08063996 0.065251775 -0.04997921 0.09049585 0.10494337 -0.07271867 0.07174595 -0.05266124 -0.11245228 0.022551335 0.0407278 -0.09237349 -0.040383954 -0.059388973 -0.0022290177 -0.04396032 0.09200958 -0.09214602 -0.088689744 -0.0954768 -0.03154272 -0.026110766 0.044883452 0.086481966 0.088674836 -0.021931654 -0.12729934 -0.05197065 0.092650965 -0.030832116 -0.075262904 -0.0347735 -0.045283202 -0.0680352 -0.01642396 0.047176793 -0.028642407 0.08326034 0.07709136 0.035425775 -0.042391643 0.07077318 0.053971425 -0.022592172 0.031396296 0.052756082 0.09367676 -0.090636395 -0.014059317 -0.077572115 0.046741374 -0.05213711 -0.008307541 0.071641184 -0.03367109 0.050315894 -0.08729196 -0.059278708 0.08088732 -0.018452996 0.0066681216 -0.06603167 0.05822615 -0.014684497 -0.065691 -0.05621889 -0.08485203 -0.041994993 0.085807614 -0.053528402 0.031448342 -0.04835587 0.07524845 -0.06564356 0.052911576 0.10281627 0.11389174 0.044309877 -0.11254366 -0.093027584 0.100865655 0.079571165 0.072961174 -0.054097295 0.02973837 -0.013073485 -0.09564299 -0.013095954 -0.08936415 -0.13900617 0.062304273 -0.0798247 0.031772632 0.0022803422 -0.0628068 -0.08272256 -0.052812777 -0.089613274 -0.060466632 -0.04636245 -0.056956474 0.069439076 0.09374077 -0.11923927 -0.08403322 0.090202555 0.043339677 0.106117316 0.07618867 0.0383969 0.07392235 -0.06745256 0.03741486 0.08845583 0.049723405 0.064319916 -0.05324736 -0.059005894 -0.058290806 -0.069602504 -0.09455558 -0.017447105 -0.13413048 0.027261866 0.050693702 -0.024859576 -0.14239511 -0.076318 -0.059629884 -0.06307348 -0.08262285 -0.105049536 -0.07200159 0.070840895 -0.05260557 -0.033313714 0.025917295 0.07641497 -0.070729434 -0.09352478 -0.042245705 -0.103340745 -0.050234314 0.015745848 -0.06865952 0.09120482 -0.072154775 -0.099151984 -0.059736595 0.068522006 -0.030702569 0.09922463 -0.030378332 0.102114 -0.13568175 0.00850613 0.060452517 0.10438116 0.07667412 0.035908576 -0.066671014 0.06952173 0.02628126 -0.048272505 0.08776174 0.08857682 -0.07159555 0.04461579 0.099029526 0.017865092 0.045783684 0.010456244 -0.08755764 -0.080111764 0.12589996 -0.124823734 0.11304545 -0.035263028 0.101539426 0.011642632 -0.066779636 -0.07508212 0.033538837 -0.04507347 -0.04298482 0.02526948 -0.06637725 0.056179307 -0.0294508
may 0.10938289 0.04619883 -0.06446125 -0.035733525 0.029765466 0.08062115 0.052853525 0.08638665 0.09489751 -0.082427144 -0.0856933 -0.124785535 0.061571296 -0.059832983 0.04355115 0.08186788 -0.08313746 0.04760251 -0.057184435 -0.10040393 0.058084015 0.045501933 -0.11270104 -0.03421161 -0.031850725 0.04608648 -0.06511794 0.062003758 -0.05528913 -0.09307162 -0.07187812 -0.04043196 -0.055362392 0.01874538 0.10776516 0.07189119 -0.051244657 -0.09039406 -0.054129943 0.09272321 -0.031211393 -0.056244496 -0.034069423 -0.04038345 -0.10673973 -0.070442595 0.06947175 -0.0075356485 0.09393669 0.093445554 0.029967217 -0.031569343 0.023989605 0.04487081 -0.092483014 0.023536677 0.089062445 0.08024411 -0.08209908 -0.023807863 -0.064125225 0.07499202 -0.06346487 0.017506849 0.14922373 -0.022154424 0.034860343 -0.11517937 -0.057762355 -0.002093287 0.0062156543 0.051952306 -0.07511079 0.0808243 -0.036506005 -0.058476876 -0.040919777 -0.086123765 0.0069831586 0.07377089 -0.08238462 0.05391749 -0.07454565 0.029933289 -0.07579749 0.083331205 0.10682701 0.098815866 0.046877656 -0.11196661 -0.029759964 0.08898597 0.064016655 0.0446182 -0.0023191138 0.027426898 -0.016903523 -0.11863602 -0.042428337 -0.10563572 -0.13848867 0.04196497 -0.058987662 0.025316596 -0.004919238 -0.07121754 -0.07019665 -0.06860214 -0.10744923 -0.04645716 -0.10500183 -0.06789734 0.06846204 0.1113297 -0.09782165 -0.036739826 0.031307623 0.059051428 0.092241526 0.06197411 0.044039346 0.057433024 -0.060151506 0.04400677 0.040977955 0.04640664 0.059517473 -0.06773809 -0.1005626 -0.051955022 -0.03341227 -0.09949884 -0.0026414979 -0.115721144 0.05602563 0.05535748 -0.028355457 -0.11145422 -0.09379136 -0.05205746 -0.070311174 -0.09206021 -0.08333928 -0.030571276 0.107857615 -0.06503651 -0.027706558 0.014510106 0.08088386 -0.03371904 -0.08019341 -0.067141704 -0.117232524 -0.036135208 0.031092744 -0.077657945 0.088838786 -0.049485967 -0.047489904 -0.06561323 0.11625757 -0.040350344 0.08146492 -0.08767089 0.09803598 -0.10668554 0.030437812 0.09150867 0.10739765 0.10195792 0.07290241 -0.07284141 0.06623463 0.06429985 -0.04956814 0.10041335 0.09618999 -0.036074955 0.07078884 0.12053634 0.01849243 0.044334885 0.029262852 -0.10322512 -0.052952643 0.0598675 -0.107128106 0.11643589 -0.05196686 0.08428184 0.039272483 -0.0033655958 -0.06514985 0.026453843 -0.0425839 -0.039229542 0.031471495 -0.022356467 0.07040818 -0.032280773
manag 0.06873248 0.089002356 -0.084932774 -0.063927 0.03743559 0.06218852 0.03940645 0.08681259 0.076916456 -0.068557486 -0.063912764 -0.11671688 0.05389803 -0.07044592 0.07162628 0.079985805 -0.04464439 0.07950446 -0.102329865 -0.07896339 0.07444404 0.04758527 -0.110366896 -0.011560551 -0.02113844 0.015520919 -0.060422372 0.07873869 -0.05496101 -0.08908431 -0.074949525 -0.046729814 -0.06842991 0.014477608 0.10554579 0.07654949 -0.04712398 -0.09255614 -0.035344716 0.10824614 -0.023592278 -0.055838346 -0.020377543 -0.077053756 -0.08572844 -0.017605454 0.05710089 -0.066981174 0.08141967 0.06767527 0.07933323 -0.04136958 0.04220297 0.07911951 -0.08926275 0.011102555 0.05087165 0.09649981 -0.08062695 -0.007632709 -0.08130548 0.07387164 -0.06685811 0.011479114 0.08350893 -0.02066249 0.050866466 -0.07439302 -0.05659101 0.06328682 -0.014441451 0.02267424 -0.0792821 0.057614274 -0.04038785 -0.05887189 -0.045217056 -0.049281318 -0.03410852 0.085345514 -0.044693395 0.005879264 -0.07911567 0.043105382 -0.06543272 0.08365656 0.08455872 0.08398671 0.08920221 -0.10319604 -0.07851673 0.10256382 0.095693 0.07539091 -0.006639027 0.058123153 -0.056331187 -0.08730006 -0.07928886 -0.07993895 -0.09058948 0.0841051 -0.07887659 0.056629125 -0.030395582 -0.08637789 -0.06801777 -0.07085041 -0.10556064 -0.026152099 -0.05687523 -0.08337049 0.063384645 0.07629702 -0.099713296 -0.09196361 0.08607272 0.074094124 0.10247665 0.0898449 0.04093134 0.04229362 -0.085337855 0.010205881 0.097620666 0.048280638 0.07182589 -0.03627967 -0.07867696 -0.091767035 -0.070454106 -0.11807297 -0.013990223 -0.102259584 0.06925744 0.04716136 -0.021168107 -0.13425392 -0.10150022 -0.07798899 -0.070344485 -0.083389536 -0.06127136 -0.023269052 0.09781807 -0.09126332 -0.04084595 0.033101436 0.08883666 -0.05097618 -0.061001126 -0.04651662 -0.09185949 -0.089710385 0.062290348 -0.050163727 0.0751456 -0.06835026 -0.06938 -0.08536633 0.08155103 -0.03090024 0.052801322 -0.09501459 0.079473086 -0.078517176 0.042496786 0.09434762 0.1222286 0.08821095 0.08909557 -0.10011189 0.032726225 0.06353651 -0.06749274 0.08056446 0.0659545 -0.04551645 0.073655605 0.059266392 0.03556937 0.029255424 0.043439284 -0.07158089 -0.07750237 0.10123423 -0.091834605 0.10463729 -0.053082395 0.09117724 0.04869176 -0.058515996 -0.061136216 0.0435234 -0.03987462 -0.07092487 0.064843304 -0.04464791 0.02900968 -0.015041138
thi 0.05943754 0.043263655 -0.07857234 -0.060184356 0.036997963 0.05845588 0.077533625 0.11326918 0.080624446 -0.09041782 -0.07345666 -0.07077752 0.043161396 -0.06835999 0.06473423 0.11884093 -0.07314981 0.09226395 -0.07443147 -0.08355759 0.05473401 0.023435434 -0.104607515 -0.046982322 -0.07734313 -0.0054995418 -0.062132154 0.07207016 -0.09263618 -0.08259717 -0.043930393 -0.02839797 -0.06659377 0.016645666 0.09613873 0.06392123 -0.046761274 -0.07743755 -0.0035841174 0.09044909 -0.045601852 -0.02839549 0.017014086 -0.10470182 -0.09844313 -0.04596152 0.060515024 -0.06144073 0.10322572 0.06522768 0.06292241 0.007732946 0.06910463 0.08050673 -0.07771719 -0.02443114 0.03731409 0.085168615 -0.09092846 -0.0036188478 -0.06094807 0.065285586 -0.06269959 0.010267947 0.0529621 -0.027763873 0.027265549 -0.114723876 -0.061960664 0.06920629 -0.027291708 0.010834619 -0.055019006 0.02809603 -0.083180174 -0.078719236 -0.04092385 -0.08002608 -0.018918289 0.11268953 -0.025834594 0.024506731 -0.062149253 0.011773351 -0.10499942 0.103851 0.10124146 0.101720154 0.065162234 -0.11906175 -0.06281387 0.08207804 0.10169311 0.07577553 -0.00037290514 0.0435279 -0.048853308 -0.08674174 -0.030712586 -0.09651876 -0.12739384 0.08659032 -0.081345186 0.092891775 0.019656064 -0.0853221 -0.08471318 -0.069375284 -0.095243864 -0.03299325 -0.09920769 -0.07994335 0.04648675 0.09426611 -0.069500715 -0.07082409 0.09354413 0.018777927 0.11117177 0.09843076 0.029132884 0.067749046 -0.058055703 0.022423012 0.10612755 0.046636507 0.055927422 -0.02537307 -0.047971625 -0.074227415 -0.037704084 -0.13936503 -0.012390843 -0.1087897 0.093412936 0.030511638 -0.017187668 -0.11714525 -0.06470653 -0.05229895 -0.08080801 -0.07885413 -0.038383026 -0.050115358 0.08595154 -0.077892356 -0.034791376 0.0035229027 0.084844925 -0.030546779 -0.06141366 -0.056599434 -0.11735419 -0.090016425 0.032195225 -0.09914094 0.0686983 -0.06189179 -0.08778963 -0.09101803 0.078622796 -0.050983492 0.059880715 -0.063067354 0.09494626 -0.11151236 0.052693915 0.0847058 0.05970936 0.048897043 0.046360828 -0.079771616 0.059479523 0.04414712 -0.04827854 0.090374984 0.06129017 -0.016371101 0.05943523 0.04124423 0.028892433 0.056794804 0.03341285 -0.05449999 -0.062391635 0.07666936 -0.118352376 0.093634516 -0.085647315 0.05838106 0.06328697 -0.06633083 -0.10485393 0.0767781 -0.058307566 -0.055963397 0.06311159 -0.05237706 0.062116552 -0.038650542
cost 0.09479858 0.08517486 -0.12544522 -0.060648758 0.029486788 0.033582166 0.044380654 0.059860684 0.04280987 -0.08506848 -0.051501065 -0.09641042 0.043339238 -0.087138094 0.06434048 0.104034096 -0.012073359 0.0717749 -0.062041473 -0.08359972 0.03522381 0.026413908 -0.12412708 -0.031008868 -0.025088405 0.03089697 -0.07122682 0.09698519 -0.067414284 -0.08108424 -0.09209368 -0.041875593 -0.016246399 0.04934846 0.10793101 0.06539983 -0.017867139 -0.0683379 -0.028545333 0.057113335 -0.021308731 -8.7640765e-05 -0.05064187 -0.06712341 -0.071157426 -0.044517 0.027048618 -0.06915942 0.11337274 0.07933226 0.031059569 0.014670672 0.032129113 0.06835785 -0.1187687 0.018972663 0.0469878 0.10202543 -0.13165663 -0.028926942 -0.07714107 0.08651125 -0.07156374 0.023433952 0.14480247 -0.034443103 0.052856494 -0.11979381 -0.070492886 0.052189704 -0.0475596 0.059019186 -0.08231856 0.062031545 -0.063626744 -0.023562428 -0.068995036 -0.05636625 -0.012364718 0.09718783 -0.058920763 -0.015551619 -0.052789763 0.025074774 -0.064396225 0.086362 0.06949246 0.06959279 0.03398679 -0.10616553 -0.094204016 0.13066421 0.07250536 0.086086646 -0.05690337 0.042014826 -0.018923618 -0.12138461 -0.06703682 -0.07883193 -0.11133491 0.043660868 -0.073456585 0.038737975 0.0035922844 -0.09972072 -0.050223477 -0.053421635 -0.10942526 -0.02667584 -0.014011814 -0.06315842 0.034652553 0.07813577 -0.08043 -0.052620105 0.07171684 0.062382184 0.10273754 0.08627157 0.058249567 0.07786615 -0.055603582 0.03388353 0.118983395 0.057614684 0.053033326 -0.022542574 -0.08294599 -0.06813306 -0.034955833 -0.11087122 0.013953098 -0.0659422 0.062490266 0.06680306 -0.021379821 -0.109881595 -0.04981559 -0.055213388 -0.04874588 -0.09635873 -0.03504857 -0.061929498 0.073450655 -0.06537945 -0.033956084 0.031147605 0.087805875 -0.02809834 -0.063234985 -0.04979828 -0.14316882 -0.04581003 0.06376999 -0.099453 0.086615235 -0.099933736 -0.076277986 -0.0659127 0.10883652 0.0017503767 0.050731312 -0.055612553 0.064510435 -0.13950564 0.031108566 0.13807653 0.07135668 0.14068197 0.1121683 -0.09914597 0.037458256 0.09344671 -0.076224856 0.07474412 0.07828723 -0.040138226 0.036668345 0.045188226 0.0058885557 0.07865977 0.0207481 -0.10550705 -0.08740916 0.06596391 -0.074885964 0.079180755 -0.042120684 0.09443218 0.025338197 -0.05098282 -0.04904085 0.018323425 -0.04902734 -0.0067853895 0.07365093 -0.05269544 0.012915595 -0.010604782
result 0.11295176 0.06731447 -0.05851418 -0.052391358 0.04015015 0.07736034 0.052936718 0.04540204 0.047529683 -0.07815098 -0.077780895 -0.084284276 0.088900425 -0.10489845 0.068923 0.09634005 -0.094293244 0.0437239 -0.112215094 -0.06807412 0.060712494 -0.006903801 -0.11843023 -0.027093496 -0.0346839 -0.0037656717 -0.06412767 0.0803954 -0.089365534 -0.06270984 -0.07703627 -0.03831001 -0.036295325 0.04103433 0.10660341 0.09109643 -0.06422745 -0.06821321 -0.033789758 0.102011256 -0.019248515 -0.023342453 -0.037405387 -0.0525532 -0.14034152 -0.06843405 0.05155931 -0.015225116 0.12538727 0.058480296 0.052131545 -0.023547212 0.05178503 0.07174387 -0.061304986 0.055029154 0.015867304 0.078237295 -0.07314943 0.007084531 -0.074213676 0.06334909 -0.09324305 0.02304038 0.09122052 -0.060400132 0.069232725 -0.1129649 -0.080429174 0.023324378 -0.051488146 0.0035967242 -0.036322072 0.09461953 -0.063597605 -0.058168847 -0.10099679 -0.08685353 -0.022546662 0.07005547 -0.05893838 0.029893206 -0.043583658 0.032109495 -0.1199742 0.06315355 0.042895876 0.117546126 0.086724564 -0.07166603 -0.044432662 0.0880128 0.096402906 0.034140192 0.016454566 0.044662453 -0.03425972 -0.14163005 -0.043056894 -0.13142711 -0.07730057 0.05678491 -0.036502484 0.05022037 -0.030589819 -0.057322 -0.059079535 -0.01994403 -0.10273283 -0.02364608 -0.07752424 -0.073435865 0.013589834 0.11209683 -0.067270726 -0.082434826 0.1069893 0.05107604 0.13628794 0.047985096 0.040401913 0.05805752 -0.07605716 0.0108099235 0.072483204 0.06606752 0.07680301 -0.010239618 -0.08520871 -0.057714395 -0.04327355 -0.111484885 -0.020383455 -0.046419106 0.06288375 0.042027764 -0.049429078 -0.14983985 -0.049970977 -0.023919139 -0.09401002 -0.07856863 -0.028368467 -0.05242688 0.049138494 -0.12410648 -0.023948845 0.034235686 0.11357733 -0.037652574 -0.11257429 -0.08710469 -0.108514555 -0.029218959 0.019981893 -0.07983231 0.058331408 -0.060057346 -0.09299876 -0.08303994 0.068385385 -0.030432282 0.053746995 -0.07094509 0.09897439 -0.10083447 0.035515614 0.11209716 0.07200301 0.1144867 0.08636824 -0.07958903 0.035153605 0.10481575 -0.04766962 0.11508277 0.07516362 -0.0478154 0.02805196 0.07364119 -0.0055996836 0.08259289 0.041217085 -0.083387144 -0.07180639 0.0397554 -0.053918235 0.060413808 -0.055698145 0.11218028 0.02916759 -0.04606557 -0.0794322 0.02944034 -0.035023253 0.015203244 0.044858728 -0.07271841 0.04981608 -0.007875451
